nep4 2 Mg O 
cutoff 5 5 66 66
n_max 8 8
basis_size 8 8
l_max 4 2 0
ANN 30 0
 -2.3005912e-03
 -8.4431830e-04
  8.4724554e-05
  1.8336521e-03
  3.5783113e-04
  2.7270693e-02
 -1.4951983e-03
 -1.4454832e-04
  8.1499303e-03
 -3.1272687e-03
 -1.0023436e-03
  1.9555689e-04
 -1.0070838e-03
 -1.6817652e-03
 -1.2668537e-04
 -4.7955164e-04
  4.0636472e-03
 -3.3237822e-02
 -3.6329048e-04
  1.6369504e-03
 -6.2189880e-03
  3.1736854e-04
 -1.9880374e-04
  1.0823401e-04
  1.2781526e-04
  6.8754918e-04
 -1.1999218e-03
 -4.1986914e-05
 -6.8764486e-05
 -9.6304789e-03
  2.5711050e-03
 -4.4975377e-04
  1.2765954e-03
  1.8248376e-03
 -5.6738514e-03
  1.2041199e-04
  8.7572634e-04
 -2.5076832e-04
  6.1955982e-01
  4.8919307e-04
  7.2144424e-03
 -2.8692730e-04
  2.7631943e-03
 -3.0213877e-04
  1.6097492e-04
 -5.9593009e-04
  5.4609036e-04
 -5.4272608e-04
 -1.7440335e-03
  1.2412883e-03
 -6.7573792e-04
 -1.7385365e-04
  2.1409425e-03
  2.6035195e-04
 -4.6728550e-05
 -1.2574562e-04
 -5.8171654e-04
  1.7563600e-04
 -4.7495650e-04
  1.1709235e-03
 -6.9180628e-06
  3.2858466e-04
  5.9357571e-04
 -1.3236405e-03
 -3.5602725e-04
  1.0974854e-03
  1.1453126e-03
 -3.2472317e-04
 -2.8660864e-04
 -2.6838199e-04
  1.0286459e-03
 -6.8037077e-03
 -2.7355892e-04
 -5.3121627e-04
 -2.3642753e-03
 -1.1356769e-04
 -6.3971389e-04
  1.3015129e-03
  7.7107525e-04
  6.9169677e-04
 -6.2047882e-05
 -1.8444865e-04
  1.1712885e-03
  1.7015252e-03
 -1.0247133e-03
 -8.4466548e-05
  1.3418620e-03
 -9.6900237e-04
 -1.5081250e-04
  6.9818809e-04
  6.2013720e-04
  5.8023876e-04
  2.5688997e-01
  1.0981363e-04
 -1.7016309e-03
 -6.9436611e-04
  1.9795592e-04
  7.3258526e-04
 -1.4404026e-04
  1.6303129e-04
 -2.9194864e-04
 -3.3926219e-04
  3.7006458e-04
  1.2829258e-04
  4.3767588e-05
 -6.4281753e-04
 -1.2458145e-03
  6.9180976e-05
  6.8490684e-04
  3.0712783e-04
 -2.5885629e-05
  2.5137182e-04
 -9.2086697e-04
  3.4727919e-04
 -8.4010919e-04
 -5.9012213e-04
 -2.7811926e-04
  3.2602742e-04
 -2.5816579e-04
 -2.2188404e-01
 -4.9526247e-05
 -1.4185575e-04
 -4.2890239e-04
  3.0448168e-04
  1.6648542e-04
  1.4634600e-03
  3.7947591e-04
  1.0944535e-04
  2.3002217e-03
 -7.9010014e-04
 -3.7147981e-04
  1.5888845e-04
 -5.7157024e-04
 -2.3898906e-03
 -1.1880565e-03
 -3.7935741e-05
 -6.1335589e-04
  4.8415922e-03
  8.9761830e-04
 -3.3390485e-03
 -2.0499667e-04
  2.7637757e-04
  3.5114094e-04
  6.8652624e-04
 -2.4055344e-05
 -2.8200453e-04
 -1.4421901e-03
 -5.4283958e-04
  5.5855588e-04
  1.6716099e-03
  9.4496430e-04
  3.9905560e-04
  4.5820736e-04
 -3.1018597e-05
 -5.4070611e-06
  6.2450615e-04
 -5.3216922e-05
 -1.6205820e-05
  6.4492377e-04
  7.5061154e-04
 -2.2638714e-04
 -1.4312058e-03
 -2.0202353e-04
  2.0472701e-03
  1.0960916e-03
 -5.6165428e-04
  6.6943007e-04
 -1.9490814e-03
 -9.7310243e-05
 -2.9327832e-06
  5.2661431e-04
 -2.7128447e-02
 -1.3849000e-03
  3.3187363e-04
 -5.0183353e-05
 -7.7992707e-04
  5.5999786e-04
  2.8877085e-04
 -3.9484529e-03
  1.3582448e-02
  4.1842958e-04
  1.6797519e-04
  4.2293934e-04
  1.4905685e-04
 -4.1098482e-04
 -4.4127760e-04
  4.5021696e-04
  1.5033813e-03
  6.4230605e-04
  1.4941023e-04
  1.4361973e-04
  8.7611604e-04
  4.2527248e-04
  1.7636825e-04
 -2.9744206e-03
 -4.2265293e-04
  9.7767869e-04
 -1.6004885e-04
  3.9003522e-04
 -1.9364458e-03
 -1.6913923e-03
 -2.1979273e-05
  6.8386679e-04
  7.1999355e-04
 -3.1756246e-04
  2.4484203e-04
  6.6743855e-04
 -4.5173269e-04
  2.5681995e-03
 -2.9441077e-04
  5.1008229e-04
 -8.1696711e-04
  2.6120659e-04
  1.0686443e-04
 -4.2995269e-04
 -1.1975500e-03
 -1.8104907e+00
 -1.2606971e-03
  6.5256702e-04
 -6.6919059e-02
  4.3782318e-01
 -9.1099906e-01
  3.1464179e-03
  3.9132065e-01
  3.2631591e-01
  4.6169639e-01
  1.2079132e-04
  1.1789823e-01
  8.4205842e-01
 -2.3783973e-01
  3.8580063e-01
  3.8560767e-02
 -3.0151215e-01
 -1.0853110e-01
  2.0140958e-01
 -5.4177199e-02
 -1.3468438e-01
  1.7252856e-01
 -2.5931060e-01
 -9.9117331e-02
 -4.2656493e-01
 -1.7964311e-01
 -2.2842665e-01
  4.8247419e-02
  1.8032303e-03
  7.1503446e-02
 -5.1635391e-01
 -1.2109681e-01
 -2.7090240e-01
  1.7668304e-01
 -1.1443144e+00
 -4.8462704e-01
 -1.8595484e-03
 -2.2090462e-01
  1.9263621e-01
 -3.8578438e-03
  1.1558909e-03
  8.7933415e-01
 -1.7806512e-01
 -5.0635910e-01
 -9.2541324e-03
  1.5659304e-03
  4.1252782e-04
  7.1383314e-04
  6.4362910e-05
 -2.2388578e-03
  9.5079927e-04
 -2.8553180e-04
  2.2636994e-04
  1.1427138e-04
  5.3598866e-04
 -1.4458616e-03
  1.1252497e-03
 -3.2990164e-04
  3.9865664e-04
  4.5566473e-04
 -4.5170932e-04
 -1.0501492e-03
 -6.6235097e-04
  2.2792634e-04
 -2.9464751e-03
 -8.5776456e-04
  1.0959987e-04
  6.7580247e-04
 -2.9331827e-04
  4.0090895e-06
  6.9350237e-04
  7.7534336e-05
  3.6099457e-04
 -2.0676255e-03
  4.1352442e-04
  5.5837946e-04
 -4.8371850e-04
  1.0995522e-04
 -5.3579774e-04
  9.4219175e-04
 -9.1656868e-05
  8.8805176e-04
 -3.1176917e-04
  5.8038032e-04
 -1.8275542e-04
  1.2500680e-03
 -7.3750812e-04
 -3.2861313e-04
  7.8881910e-04
  5.0661934e-04
 -4.5267883e-04
  4.0702650e-04
 -1.3329575e-03
  8.7852043e-04
 -1.1895458e-03
  6.7142688e-04
  2.7018168e-04
  3.5056743e-07
 -1.0256426e-04
  2.5202279e-04
 -1.5194931e-03
  1.5777877e-03
  7.1232556e-05
 -6.1013404e-04
  6.9349405e-04
  9.5617323e-04
  1.4558817e-04
  1.0248640e-03
  3.2441232e-02
 -1.4136062e-04
 -3.3325571e-04
 -1.8488815e-02
 -9.4545720e-04
 -4.3022680e-01
  2.8847554e-04
 -2.6426006e-02
 -5.1541803e-03
 -3.0084813e-02
 -1.7804803e-05
  3.2947215e-04
  2.7166098e-01
 -1.2466262e-01
  2.7374251e-04
 -1.3654208e-04
 -7.3568439e-03
  4.8712954e-02
  1.3644368e-03
 -6.2296908e-02
  4.8776373e-02
 -8.4125320e-04
 -1.6087955e-01
  6.9378444e-04
 -2.2709947e-02
 -9.9920429e-02
 -3.1202782e-02
 -5.9282663e-04
 -2.0317847e-04
  4.0768288e-02
  2.4118586e-02
 -5.0789597e-03
  3.1890505e-04
  6.2192813e-04
  4.7980104e-02
 -5.3686727e-02
  1.8536460e-03
  1.8313075e-04
 -4.0033972e-01
  2.9781326e-05
  3.2849223e-04
  6.0265910e-02
 -4.5752425e-02
 -5.3455110e-04
 -1.4329774e-02
 -8.4893318e-04
 -2.1870341e-04
  1.7566562e-02
 -1.1767108e-03
 -1.1914697e-03
  2.5895305e-04
 -5.7965383e-04
 -4.2432253e-04
 -4.4041194e-04
 -1.3158350e-04
 -1.5816279e-04
  1.0892571e-03
  3.7824479e-04
 -1.2163222e-03
 -5.3514712e-05
  6.7476608e-04
  6.3139375e-04
  8.2738821e-05
  1.4921710e-04
 -3.5077141e-05
  9.5093006e-04
  1.2688297e-03
 -5.2770023e-04
  8.7999325e-04
 -1.3661052e-03
  6.1967218e-04
 -4.6626618e-04
 -6.0768350e-04
 -2.4027815e-04
  1.8321014e-04
 -1.8460266e-04
 -1.8413374e-03
  6.9825532e-04
  8.0898730e-04
 -3.2545763e-04
 -3.3702230e-04
 -9.8348573e-06
 -2.3051175e-04
  3.3032525e-04
  2.1388300e-04
  2.9834031e-04
  1.8437544e-03
 -7.0319505e-04
 -3.1597940e-03
 -8.4215001e-04
  5.9342326e-04
  9.9255238e-04
 -5.6490785e-04
 -4.6743435e-04
 -7.1813492e-06
 -5.8087544e-04
  1.4578809e-03
 -1.8576268e-04
 -7.9692347e-04
  7.9866714e-04
  1.5495707e-03
 -3.1400105e-04
  1.1407330e-03
  2.1682512e-03
  6.1313534e-04
  1.9252185e-04
 -4.1001861e-04
  1.7705483e-04
  1.3637197e-03
  1.4254448e-04
 -6.3289008e-06
 -8.5180203e-05
  5.8340840e-04
  6.2449748e-05
  8.5952476e-04
  4.8924310e-05
  2.8717762e-04
  1.4050971e-03
 -7.8475961e-05
  5.2833481e-04
 -2.6720669e-04
  4.5202160e-04
 -4.0900501e-05
  1.6499138e-04
  7.1208319e-04
 -6.5529149e-04
  2.1540072e-05
 -1.8386579e-03
 -3.2924640e-03
  4.1646752e-04
  7.1489078e-04
  3.0149351e-04
 -1.4773246e-03
  6.1020907e-04
 -4.8560681e-04
  1.0050453e-03
  9.8181667e-04
 -3.1225677e-04
  8.0847775e-04
 -1.7720807e-03
  1.5283787e-03
  2.6674624e-04
  3.8850069e-04
 -4.3242332e-04
  1.5618550e-03
  1.3171642e-05
  3.9885348e-05
 -7.0837901e-05
 -1.1570002e-03
 -5.5975752e-04
  1.7048324e-03
 -5.7651330e-04
 -3.6550534e-04
  4.5391603e-04
 -5.7918107e-04
  2.4894360e-04
 -3.6896823e-04
 -6.2476343e-04
 -8.4148999e-04
  4.1294697e-04
  9.2971948e-04
  1.1855522e-03
  4.6244610e-04
  9.2152128e-04
  8.1438012e-04
 -7.9948327e-04
  1.5759427e-04
  3.6559219e-04
 -7.9383998e-04
  4.4447082e-04
  1.5997646e-03
 -1.9276103e-04
  8.5611397e-04
 -1.3541900e-04
  4.8292550e-04
 -6.8736990e-04
 -8.6652016e-04
 -1.2872244e-03
  8.7070069e-04
  1.5395141e-04
 -6.0236268e-04
  4.4746679e-04
  3.9217563e-04
  3.2563231e-04
 -1.0162952e-03
 -1.8258407e-04
 -6.1911566e-04
  1.6062991e-03
 -3.9963637e-04
 -5.1154773e-04
  5.4263422e-04
 -5.8755255e-04
  9.7895961e-04
  8.0624537e-04
  4.1699011e-04
 -1.4855708e-04
 -5.1436067e-04
  7.1843067e-04
 -3.5094784e-04
 -2.3151829e-04
 -8.0590782e-04
 -2.6057789e-05
 -2.3347267e-04
  6.1217631e-04
  1.8528169e-04
 -6.1133929e-04
 -8.0911681e-04
  1.5217388e-03
  2.1027168e-03
 -1.4939344e-04
 -1.1188545e-04
 -5.4215270e-05
  5.2675168e-04
  1.4343034e-03
  1.4721693e-03
 -3.4998014e-04
  5.5848062e-01
  3.9821613e-04
  2.5534827e-01
 -4.9133670e-01
  3.0808228e-01
 -1.8130665e-01
 -2.7542657e-01
 -2.1464543e-01
 -1.1088159e-02
 -2.2764099e-01
 -1.0763362e-01
 -2.5187071e-02
 -1.0238403e+00
  1.9345082e-01
  2.8060862e-01
  3.6023951e-01
 -6.5162040e-02
  2.2676992e-01
 -1.5524007e-01
  1.4620662e-01
 -1.7176811e-02
 -5.3192049e-01
 -2.0977436e-01
 -2.9248607e-01
  6.0206838e-02
  3.0418251e-02
  4.4126604e-02
 -2.4055497e-01
 -3.9608279e-01
 -4.7476245e-03
  2.1167643e-01
  1.7705141e-01
  1.4709596e-01
  1.6353109e-01
  6.5644033e-02
  5.5657644e-03
  1.2873622e-03
 -6.3403046e-01
  1.4904836e-01
  4.0151451e-02
 -1.5566153e-02
 -7.2436512e-02
 -4.1567788e-01
  2.2320941e-01
  2.1116310e-01
 -1.2671399e-04
  8.5583837e-05
 -3.7209760e-02
  1.6927700e-01
  1.5146539e-01
 -3.0050835e-02
  1.3160431e-03
 -4.8687220e-02
  8.8104926e-04
  1.8782444e-04
  5.9439603e-04
  8.5016698e-05
 -4.1337605e-04
 -3.3440668e-04
 -2.9421466e-05
  2.0778946e-04
 -6.7569397e-04
 -5.9828151e-05
 -1.0550419e-03
  9.0128271e-04
  1.4356780e-04
  2.0567719e-03
 -5.8780843e-04
  9.6474664e-04
  3.2649504e-04
 -1.3598914e-03
  3.4289681e-03
 -3.3241795e-05
 -7.9535280e-04
  6.1991153e-04
  9.4938889e-04
 -2.7212920e-04
 -1.9946904e-04
 -4.9276341e-04
 -2.2031450e-04
 -1.1921352e-03
 -2.1708978e-04
 -7.1900280e-04
 -6.4902141e-04
 -6.4405713e-06
  1.0112526e-05
  1.5897910e-03
 -1.6094414e-04
 -3.0720263e-04
 -4.6470636e-04
 -4.6604782e-04
  3.4010544e-04
 -2.3330136e-03
  6.3026987e-04
  2.8477758e-04
  3.8912779e-04
 -2.8919143e-04
  1.2029362e-03
  1.3722853e-04
  6.5655232e-04
  3.2523589e-04
 -1.6160467e-06
 -4.0971037e-04
  1.4720090e-04
  5.2488048e-04
  1.3315158e-03
  8.2955012e-05
  2.0249997e-04
 -1.4518740e-04
 -9.9350749e-05
 -6.2037120e-04
  4.1933075e-04
  8.2049298e-04
  4.8606607e-04
 -1.2785417e-03
 -6.0613023e-04
 -2.1335130e-05
 -8.0647488e-04
  3.1087884e-06
  8.1214683e-05
 -1.5800033e-04
  8.6301228e-04
 -3.4824401e-04
  5.6004879e-04
 -2.2744254e-04
  7.0402719e-05
 -3.1984562e-06
  3.9906017e-04
  8.6199958e-04
 -1.5838366e-03
 -4.1766074e-05
  2.2700852e-04
  1.3316106e-03
  1.0675312e-03
  5.0112628e-04
  2.1856642e-04
  3.1129241e-03
 -1.8646769e-04
 -5.3401785e-05
 -1.2899492e-03
  3.2449159e-04
  1.1613774e-04
 -1.6156494e-03
  1.9518967e-04
  1.2213964e-05
  2.1948288e-03
 -2.9098336e-04
  4.8001829e-04
  2.5313423e-04
  9.2564698e-04
  8.3080457e-05
  8.6471549e-04
 -6.4640533e-04
  2.9333180e-04
  4.9170991e-04
 -1.2000529e-03
 -1.4985357e-04
 -3.0044994e-05
 -3.2992184e-04
  3.3743685e-04
 -5.7513034e-04
 -7.2823639e-04
 -3.1836462e-04
  1.5151345e-03
 -6.3553121e-04
 -6.1179904e-05
  2.0387144e-04
 -5.7777310e-05
  9.9662284e-04
 -9.9907033e-05
  1.4520790e-04
 -5.3877610e-04
 -2.9959899e-04
  6.4472260e-04
  3.5301832e-04
  2.7671948e-04
  6.1737699e-04
 -6.3815672e-04
  2.1492183e-04
 -1.1471405e-02
 -3.4421892e-04
 -2.0009545e-03
  2.9352267e-04
 -2.6073353e-04
  4.2392657e-04
 -6.9286616e-04
  9.8780019e-04
  2.4128112e-04
 -9.5768447e-04
 -4.5746891e-04
  3.9784439e-04
  4.3913946e-04
 -1.0536412e-03
 -1.4178553e-03
 -4.8402842e-04
  2.0420584e-03
  3.6952319e-04
 -7.6856400e-04
 -9.1298840e-05
  3.6104108e-04
 -1.1865071e-03
 -3.5863390e-04
 -1.1573475e-03
  3.0931883e-04
  9.6033080e-05
  2.3658893e-03
  7.3267776e-04
  1.1941487e-03
  7.9828239e-04
 -8.1710803e-04
 -4.0045686e-04
 -4.9427676e-04
 -8.2207227e-04
 -5.5057777e-04
  3.3332524e-04
 -2.1988068e-04
  1.3653728e-02
  9.7138871e-04
  1.0206616e-03
 -9.0770243e-04
 -1.1680439e-03
  1.8334810e-02
  2.5746133e-04
 -2.5029917e-04
  4.0447116e-02
  1.3375762e-03
 -1.8277144e-03
 -5.5411260e-04
 -4.2097604e-01
  3.2852851e-02
  2.3419967e-02
  1.7930336e-04
  6.5406221e-03
 -1.6900981e-02
  1.0145065e-04
  1.4266710e-02
 -9.6898079e-03
 -2.8467175e-02
  4.8825894e-02
 -1.4307334e-03
  5.3227846e-02
  9.9793039e-03
  4.6170991e-02
 -3.9569563e-03
 -1.1742268e-05
  3.3976944e-04
  9.1504706e-03
  1.0966097e-01
  3.1734288e-02
  2.1706540e-02
  5.1774684e-02
  5.5775256e-03
  4.3627187e-03
  3.1309556e-02
 -3.3880897e-02
  5.0274264e-03
 -7.5610049e-05
 -1.4692028e-01
  5.8284495e-02
  8.2525037e-02
  3.0760290e-02
 -5.6871737e-04
 -3.7066694e-04
 -8.1632705e-03
  3.0287101e-03
  1.8953412e-03
  7.1364286e-04
 -1.7370093e-03
  1.9758637e-03
  1.1748722e-02
  3.5574272e-01
 -4.8090363e-04
  2.0465662e-01
  1.2227091e-01
 -1.8319824e-01
  9.0393968e-02
  2.9216337e-01
 -3.3152544e-01
 -8.7053478e-01
  1.9036321e-01
  2.6477844e-02
  1.2022559e-01
 -2.3692285e-01
  6.8475209e-02
  4.0417768e-02
 -2.5321022e-01
 -2.1728699e-01
 -1.6826208e-04
  3.1413365e-02
  1.4413947e-01
 -5.8963399e-02
  1.0356638e-02
  4.8400298e-01
  2.3796663e-01
  3.5872412e-04
 -1.0675297e-01
  4.3182518e-02
  4.8813000e-02
  4.3349575e-02
 -1.0654733e-01
 -2.5254643e-01
  4.1089337e-02
  2.0384814e-01
 -2.0230202e-02
  6.1264592e-03
  7.0310861e-02
  1.5667223e-03
  1.3396393e-01
 -5.6549847e-01
  1.7129900e-02
 -5.2690448e-04
  5.9161997e-01
  8.3774053e-02
  1.6563968e-01
  5.0372279e-01
  1.3864692e-04
  1.2891326e-03
  8.7067515e-02
  5.5829124e-03
  6.9581293e-02
 -5.9191592e-04
 -1.3233890e-04
  4.9937190e-04
  2.4213102e-02
  2.5220354e-05
 -1.7628777e-04
 -6.6724460e-04
  3.4961751e-01
  5.9662666e-04
  1.4491589e-03
  2.6101872e-04
  2.0728438e-01
  4.1195115e-01
  6.3961655e-01
  1.7458263e-04
 -7.2423770e-04
 -2.2884227e-04
 -4.4338629e-04
  1.3265546e-01
 -4.5646139e-04
 -3.9096261e-04
 -1.4623233e+00
 -1.5415936e-03
  2.9087733e-04
  2.6602414e-01
  1.6700773e-03
 -4.3348670e-01
  1.0697054e-03
  5.5348739e-04
 -1.5348793e-02
 -2.9251914e-04
  1.5904743e-03
  8.6345273e-04
  3.3061984e-01
  4.0595201e-05
 -3.0418159e-04
 -1.0302495e-03
 -4.3905762e-04
 -1.3154978e-03
  2.6949449e-04
 -1.2146962e-03
 -3.0955708e-02
  1.7715915e-01
 -1.3436920e-04
 -5.8220298e-04
  1.0585772e+00
 -6.8357988e-04
  2.3987659e-04
 -2.5523189e-01
 -3.1281915e-04
 -4.6137921e-04
 -2.7224890e-04
  8.5273503e-05
 -1.9808105e-05
  2.9200919e-05
 -9.7357621e-04
 -3.7647475e-04
  1.9376064e-05
 -4.2203811e-04
 -1.2446331e-03
  1.3327262e-03
  5.0522439e-04
  1.2581215e-03
  1.0332474e-03
  7.9400185e-04
 -1.7159212e-03
  6.5618841e-04
  8.4737735e-04
  2.0782105e-03
  8.8320381e-04
 -1.2736591e-04
  3.5468664e-04
  1.1756584e-03
  1.7406199e-03
 -8.2527280e-05
 -6.0343806e-04
 -8.4947451e-04
  2.2604854e-03
  4.8715388e-04
 -2.1684628e-03
  1.0200961e-03
  2.3593460e-04
  1.0822974e-03
  1.8557531e-03
  6.0237432e-04
 -7.6654548e-04
 -1.8139965e-04
  5.7475036e-04
 -1.1974994e-05
  1.5747237e-04
  4.4651746e-04
 -5.8291940e-04
 -2.9519398e-04
 -1.6552440e-04
  1.0080975e-03
 -2.7321980e-04
 -6.4244475e-03
  3.4207664e-04
  1.2952490e-03
 -7.9347216e-02
  1.7162618e-04
  8.4712403e-03
  6.3937076e-04
 -1.3487918e-04
 -1.0386519e-03
 -9.0208529e-03
  8.2883000e-04
 -2.8249293e-04
  4.3534397e-04
  3.7040986e-04
  3.6486494e-04
 -8.8161760e-06
 -1.0174951e-03
 -6.5651821e-04
 -3.6808260e-04
  8.9348532e-04
  5.1396736e-04
 -1.2721636e-04
  3.2233764e-04
  5.6727318e-04
 -4.5987716e-05
  2.3173865e-04
 -3.1343664e-04
  7.7520998e-04
  1.4316653e-03
 -4.2330602e-04
 -1.6151780e-03
 -2.3222649e-04
 -3.3141943e-04
 -4.1935589e-05
  3.4981378e-04
 -4.6289399e-05
 -1.3321774e-03
  1.5070781e-03
 -4.8868399e-04
 -5.1315245e-04
 -3.0964179e-04
  9.0717484e-04
  3.4115263e-04
 -6.0977216e-04
 -1.2705760e-03
  1.3616902e-03
 -3.4188700e-04
 -9.5871522e-04
  2.6087684e-03
  2.7272632e-04
 -8.4103027e-04
  5.2989191e-05
  1.1020039e-03
  1.9599510e-04
  9.8565208e-05
 -8.9699187e-04
  4.1940672e-04
  2.2213771e-04
 -6.6351809e-04
  1.5557419e-03
 -1.7532802e-04
  7.8942176e-05
  4.4504466e-04
  3.1466421e-04
  2.3572736e-04
  2.6035574e-05
 -1.7361247e-03
 -5.3152582e-04
 -2.7719667e-04
  1.3035462e-04
  1.2961938e-03
  7.6563982e-04
 -9.4135944e-04
  6.1034941e-04
  2.9202973e-04
  2.0117903e-02
 -1.6951916e-03
 -1.0106320e-03
 -1.0144825e-03
 -1.3440134e-03
 -4.4337456e-04
  7.3286844e-04
 -4.6186339e-02
  5.4311991e-04
 -1.5696087e-03
  1.6960255e-03
 -5.4046453e-05
 -4.0963083e-04
 -4.9001345e-04
  1.0649252e-03
 -2.8542118e-02
 -1.6323059e-03
  4.7184029e-05
 -3.3152176e-04
  5.3220936e-03
  4.4623888e-03
  5.5865370e-05
 -5.1583874e-04
 -6.5252214e-05
 -3.2476261e-02
  1.4009334e-03
  1.5933706e-03
 -2.5364765e-04
 -1.3956928e-04
 -1.0094391e-03
 -5.2720361e-04
  1.5144256e-03
 -3.5020118e-04
  3.4149818e-02
  5.4345554e-04
  7.3787384e-04
 -1.8194826e-02
  1.5960677e-03
 -1.3474283e-04
  6.7114469e-04
 -1.4528292e-03
 -1.9062636e-04
 -4.2294510e-04
 -3.9243771e-04
  3.2474854e-04
 -1.4254485e-03
  5.8185321e-04
  3.5996779e-03
  9.5385482e-04
 -2.8827354e-02
  2.0309209e-03
 -4.2421502e-04
 -6.6439563e-04
 -3.3372322e-05
 -4.5889560e-02
 -5.1386538e-04
  6.8112981e-04
  4.7109660e-04
  4.7038920e-04
  1.4499151e-03
 -3.5676206e-03
  3.4762338e-01
 -6.8683811e-02
  8.2520254e-02
  1.3342751e-03
 -4.6926872e-03
 -1.7284589e-02
  1.2110070e-03
 -2.1520441e-02
  1.8863777e-02
  2.3396159e-02
 -7.3419802e-02
  6.9971443e-06
 -4.6758294e-02
 -3.1228988e-02
 -1.4872142e-03
  1.9576573e-03
  2.7382106e-02
  5.1112644e-02
 -8.7496303e-03
 -1.3092630e-01
 -2.2084031e-02
 -5.3555146e-03
  1.3554458e-03
 -4.2034306e-02
 -5.4031871e-03
 -1.6874693e-03
 -5.2189757e-03
 -8.2709879e-02
  3.3179243e-04
  2.9260722e-01
 -4.1518588e-02
 -1.2628090e-01
 -4.8129163e-03
  1.3413482e-03
 -9.7059680e-04
  1.1075239e-02
 -2.4047060e-02
 -8.5470714e-02
  2.2086585e-03
  2.9416985e-04
 -2.8557542e-03
 -1.9041022e-03
 -2.1349712e-01
 -1.2802711e-04
 -2.0055112e-03
  4.1321081e-01
  4.7957190e-04
  1.2665172e-01
 -8.7745540e-02
  1.6874677e-01
  1.0560320e-01
  4.8446454e-02
 -8.3669735e-04
 -7.3083542e-02
  2.3859914e-01
 -2.6929089e-01
 -7.8728244e-02
  3.8370832e-03
 -2.2553948e-01
  1.7450972e-02
 -5.4440496e-04
 -1.2577970e-03
  2.2457637e-01
 -6.8043591e-04
 -6.2602782e-01
 -8.2243957e-02
 -2.1406896e-02
 -2.2335750e-01
 -1.1284190e-01
 -3.2099403e-04
 -8.5076049e-04
  9.1654144e-02
  1.8222451e-03
 -2.2782056e-01
  8.7995012e-04
 -1.2476753e-02
 -1.7477140e-02
 -1.5233245e-01
  7.3983101e-04
  8.3869573e-04
  5.9102911e-01
  5.2321491e-05
 -1.2947185e-04
  3.1910442e-02
 -4.0266075e-04
 -1.4560004e-01
 -4.9576190e-01
 -5.9734535e-04
 -5.0668052e-05
  3.6860045e-02
  1.0280547e-03
 -9.9170735e-05
  1.5919160e-03
  7.3214185e-05
 -5.2888459e-04
 -6.1708281e-04
  6.5127038e-04
  3.4900510e-03
  1.2137651e-03
  5.9558288e-04
  1.0094148e-04
 -2.2685223e-05
 -4.8801296e-05
 -1.5237307e-03
  1.0884412e-05
 -6.5325917e-04
  9.6332806e-04
  3.6320015e-04
 -4.5478519e-04
 -6.2945945e-04
  5.9072266e-04
  1.9099815e-04
  1.3989651e-05
 -3.6637916e-04
 -9.5355572e-05
  1.4719367e-04
 -4.5835754e-06
  1.7713491e-03
  4.1605432e-05
 -2.2214850e-04
 -5.6241575e-04
  4.3711578e-04
  2.8964068e-04
 -3.2579098e-04
  2.2994081e-04
  8.0259441e-04
  1.0172813e-03
  7.7285513e-04
 -4.7504305e-04
  9.4103755e-04
 -3.9253992e-04
 -1.8190293e-04
  3.8899272e-04
  4.0000094e-05
 -6.6784376e-01
  1.1807851e-03
  2.4213198e-04
 -2.0673893e-04
  1.0662368e-03
 -7.6299337e-05
 -6.1662006e-04
  6.2587782e-04
  6.7912467e-04
  8.2601729e-04
 -3.1184076e-04
  6.8895280e-04
 -1.6376645e-05
  1.7070914e-04
 -5.1815168e-04
  1.0464309e-03
  8.9232042e-04
  4.0421603e-04
  1.0254309e-03
  9.0450252e-04
  2.2758536e-04
  3.3749704e-05
  1.8913121e-03
  2.1393686e-05
 -4.3708664e-05
  4.0456172e-04
  9.8500459e-04
  2.0641561e-04
 -4.1234016e-04
 -1.5000683e-03
  9.0500557e-01
  5.3260953e-04
  2.2284202e-03
 -4.3165074e-03
 -7.5841940e-04
 -9.3799899e-04
 -3.4741987e-04
 -1.4744808e-04
  7.7556109e-04
  1.3093743e-04
  2.2382717e-04
 -4.4240206e-03
  3.1302875e-04
 -1.8614158e-04
  4.4403266e-02
  1.0862056e-03
  1.9382015e-03
  3.6753420e-04
 -4.7242720e-06
 -3.6205648e-04
  2.9803216e-04
  9.3948893e-04
 -8.9964032e-04
  4.9057323e-04
  1.7856721e-04
  4.8316913e-04
  1.4435370e-03
  1.1665476e-03
  1.9929063e-05
  4.7895970e-04
  8.9923537e-04
 -4.6995780e-04
 -5.1949304e-01
 -1.5991597e-03
 -7.7362475e-04
 -2.9991486e-04
 -1.9615804e-04
  1.7998749e-03
  1.2808810e-04
  4.1239409e-04
 -3.0243737e-05
 -7.5696997e-04
 -1.5233444e-03
 -9.4678806e-05
  1.2873950e-03
  2.1890483e-03
 -6.4159802e-04
  6.8068002e-05
 -1.8849027e-04
 -3.0511376e-04
 -3.7850751e-04
 -1.5740690e-03
 -5.4872385e-04
 -1.6212033e-04
 -9.4190291e-05
 -2.8118771e-04
  5.2286795e-04
  6.5298419e-04
  6.8988139e-04
 -4.2791171e-06
  1.8764957e-04
 -6.4460255e-06
 -1.4880796e-04
  2.4564296e-04
  2.5175241e-04
 -8.2629675e-04
  3.2252184e-04
 -2.5599028e-04
 -1.5564113e-04
  6.7460095e-04
  2.2737896e-04
 -5.2637432e-05
  6.2411459e-04
 -4.0384493e-05
  5.1447633e-04
  2.9095274e-04
 -5.3420512e-04
 -9.3949342e-04
  1.1572073e-03
  1.0204635e-04
  3.4717360e-04
  1.8491458e-04
  5.8524031e-04
 -5.0287729e-04
  1.0269636e-03
  1.1383318e-03
  1.0527953e-05
  1.9872754e-03
  1.3474544e-03
  5.7840481e-04
  7.0442053e-05
 -7.2730711e-04
  1.5690749e-03
 -3.2887157e-05
  3.0096164e-03
  7.6397113e-04
  1.4341759e-03
 -7.2429568e-04
  1.7019182e-04
  1.3285836e-04
  1.8615198e-03
 -5.4668824e-05
  1.2995296e-03
  1.2774039e-03
 -3.2240135e-04
 -5.5937446e-04
  3.5349122e-04
  6.4072700e-04
 -9.7658449e-05
 -3.2767505e-04
 -8.2691980e-04
 -2.1419946e-04
 -7.2793360e-04
  2.3606335e-04
 -5.8797409e-04
  8.1467420e-05
 -9.5866184e-04
 -3.8326049e-04
 -8.0593233e-04
  1.3770956e-04
 -7.7653624e-04
 -4.9901841e-04
  2.2254082e-04
 -9.2792790e-04
  2.2361537e-04
 -1.6994533e-03
 -1.4196837e-04
  1.2767542e-03
 -1.9747257e-04
 -8.9939433e-04
 -1.8061591e-04
 -1.0190125e-03
 -1.1947843e-03
  1.8039094e-04
 -6.0548540e-04
 -4.2688590e-04
  1.1236377e-03
  3.0820396e-05
 -5.1952196e-05
 -8.5100043e-04
  5.5153278e-04
 -1.1782725e-04
  1.7472412e-05
 -4.7179195e-04
  2.1212371e-03
 -1.1069645e-04
 -3.8073087e-04
  5.2398792e-04
 -2.6229903e-04
 -3.3986819e-04
 -3.1995107e-04
 -3.4988637e-04
  1.1417885e-04
 -1.8415832e-03
  4.0553854e-04
 -4.7941518e-04
 -2.4012321e-04
  2.4826254e-03
  3.9843237e-04
 -3.3866338e-04
  1.8751301e-02
 -7.7783957e-04
  1.1766958e-04
 -7.5370615e-04
 -7.9988240e-04
  8.5561397e-04
  1.6932667e-03
 -3.3213463e-01
  1.5025009e-02
 -8.5276295e-04
 -2.6100513e-04
 -2.1109735e-03
 -1.9433947e-03
 -1.6345159e-03
 -3.4506133e-04
  6.9713541e-03
 -4.5866612e-04
  1.7160695e-04
 -2.3801397e-03
 -7.9547253e-04
 -9.7000161e-03
  1.3141634e-03
  1.5328536e-03
 -8.8311080e-04
  1.2719153e-03
  8.0251511e-06
 -3.8403127e-04
 -1.9504156e-04
 -4.7920900e-04
  4.2451218e-02
 -1.1904031e-03
 -8.5352856e-04
 -1.5965413e-04
  2.1616256e-04
 -2.5539185e-04
  4.7261026e-04
  7.5595680e-04
 -1.3665151e-03
  1.2631944e-03
 -1.2054663e-04
 -1.9835061e-03
 -8.1979739e-04
 -6.9422973e-04
 -1.2103861e-04
  6.8538624e-04
 -4.2236844e-04
  2.6909276e-04
  3.5235330e-03
 -7.0040015e-04
  1.2648465e-04
  3.2261485e-04
 -4.5151671e-04
 -5.4202852e-04
  1.2458768e-03
 -1.4370716e-03
  1.7394531e-04
 -7.0801988e-04
  1.4238318e-03
  6.3496671e-04
 -3.2254651e-02
  6.6435122e-04
  1.5787366e-04
 -4.3084883e-04
 -8.1647484e-04
  6.7269424e-04
  9.5486629e-04
 -2.5149828e-04
  2.4826199e-04
  9.5519400e-04
 -5.6019262e-04
 -2.6340029e-04
  4.3214607e-04
  9.9004712e-04
 -9.5821818e-04
 -7.1978859e-05
 -4.6001436e-04
  6.8622467e-04
  6.2723522e-04
  5.3245173e-04
 -5.2685128e-04
 -7.7128192e-05
 -1.1931417e-03
  9.1576134e-05
  3.7084907e-04
 -4.7704263e-04
  9.7940955e-04
 -2.9942967e-04
  3.1514192e-04
  2.8743799e-04
 -1.3708243e-03
  1.1580563e-03
  1.5129652e-03
  8.1012503e-04
  1.8078889e-03
 -1.3935782e-03
 -4.2819967e-05
  1.1113002e-03
  3.7707330e-04
  1.2690546e-04
  1.5274156e-04
  1.0958533e-03
  3.9828615e-04
  1.4348201e-03
 -1.5307677e-03
  3.4980846e-04
 -1.8227267e-03
  7.9921103e-04
 -3.0320889e-04
 -4.1198666e-04
  2.6599987e-04
 -4.4140575e-04
 -3.0437094e-04
  3.5358482e-04
 -2.4957929e-03
 -2.4589710e-04
  7.9012237e-04
  8.1736534e-06
 -1.3185844e-03
  4.7564823e-05
  4.9497851e-04
  9.1364724e-04
  3.7488563e-04
  4.1409215e-04
  3.2575164e-04
 -5.0437782e-04
  2.5394376e-04
 -1.1526204e-03
  1.5978680e-03
 -6.0957405e-05
  3.5711849e-04
 -1.0718025e-03
 -2.7294163e-02
  2.4992751e-04
  1.4994504e-05
 -3.2000613e-01
 -1.6010550e-03
  1.8220642e-03
  2.1754666e-03
  5.9079501e-04
 -3.7682676e-04
 -3.3248373e-04
  3.0712932e-03
 -5.0802884e-04
 -1.6210674e-03
  2.9094832e-04
  3.3963952e-04
  9.1221998e-04
  7.8664464e-04
  1.2719189e-04
  3.7843964e-04
  4.3793779e-04
 -1.1485499e-04
 -5.6757748e-05
  2.2143957e-03
  4.4323275e-05
  2.4374545e-02
 -1.1297460e-03
 -7.6369871e-04
 -2.3200587e-04
 -7.4030552e-04
  3.7647289e-04
 -6.3656375e-04
 -5.6326954e-04
  6.1886979e-04
 -6.3578843e-04
  1.2313489e-04
  4.9797766e-04
 -1.6897491e-03
  4.2505740e-04
  7.3356775e-04
 -8.5035764e-04
 -3.5522608e-04
  4.6575716e-04
 -6.8834139e-04
 -1.9032347e-04
 -2.6364400e-04
 -1.3467153e-03
 -1.3065119e-03
 -2.3313869e-04
  1.1105911e-03
  2.3103815e-04
 -2.2308405e-04
 -1.3286558e-03
  8.6945023e-05
 -1.7531313e-03
  1.2247738e-03
  2.5938262e-04
  6.9507206e-04
  1.9143739e-04
 -3.3263132e-04
  4.6647174e-04
  2.3496941e-05
 -3.5782770e-04
  1.2356914e-03
  5.0332316e-04
 -2.2057694e-04
 -5.5148004e-04
  3.7023015e-05
 -3.9885368e-04
 -1.9782933e-04
  2.4939771e-04
  7.7743165e-04
 -7.2816110e-05
  5.2341842e-04
  2.8953108e-03
  3.9885426e-04
 -5.1009672e-04
  5.3095794e-04
  2.9980600e-01
 -7.0264447e-04
 -8.7527104e-02
 -2.5171050e-04
  2.1524588e-04
 -1.8097799e-04
  1.9595326e-01
  1.5524690e-04
  1.9366522e-03
 -4.6948984e-04
 -8.6031371e-04
  1.4859817e+00
 -8.1249344e-01
  1.5533823e-04
 -3.3730519e-04
 -7.6433836e-04
  8.4342697e-05
  3.4676883e-02
 -5.3678377e-05
  3.3117647e-04
  9.5855148e-04
  4.3285705e-05
  2.6954984e-04
 -1.0517109e-04
  2.1510363e-05
  4.1242980e-04
  1.5761502e-01
  2.3385940e-02
 -4.7654182e-02
 -2.9807266e-02
 -1.7146648e-01
 -2.5673123e-02
 -1.4634852e-01
 -1.0108814e-04
  3.6421376e-03
 -1.1575295e-03
  4.8262650e-01
 -1.2466495e-03
 -1.6898356e-02
 -2.4659032e-02
  1.8628070e-01
  6.7980981e-01
 -3.5155125e-02
  5.9415221e-02
 -1.1481745e-04
  8.1198275e-02
 -3.4271276e-01
 -1.5199201e-01
 -6.7466170e-02
  7.9573821e-03
  3.7199466e-03
  4.9125648e-04
 -8.6006239e-02
  1.4861245e-02
  4.2868137e-02
  5.3134467e-03
 -2.4324315e+00
 -9.3854970e-01
 -5.0129759e-01
  1.5137064e-01
  1.7182912e+00
 -3.0114880e-01
  5.3442913e-01
  2.3757702e-01
  1.1862546e+00
 -6.7907482e-02
  1.9943100e-01
  1.8334451e-01
 -3.0970536e-04
  2.3459816e-02
  9.2481069e-02
  2.4549322e-01
 -7.2985649e-01
  7.9435092e-01
  2.2238000e-01
  7.4255370e-02
  1.4089670e-02
 -2.4923044e-03
  8.8684045e-02
  5.2597770e-04
 -3.1675704e-04
 -1.8712884e-04
  2.3954310e-01
  1.2370698e-03
  1.0024685e-02
 -5.7870414e-02
  1.6404305e-01
 -7.4009423e-04
 -2.5541228e-01
  5.4129335e-04
  4.1084729e-02
  8.5177705e-02
 -4.9245520e-04
  1.2250428e+00
  5.4751104e-04
  1.5670735e-02
 -1.9123351e-03
  2.5825813e-01
 -1.3601266e-04
  2.6017675e-02
 -8.7783084e-04
 -1.9319424e-03
  3.9912024e-04
 -1.6333655e-04
  7.7994732e-04
  2.1953127e-05
  1.7696470e-03
  6.5311592e-04
 -6.4488407e-04
  1.3973737e-03
 -8.7826123e-04
 -1.2310526e-04
 -4.4355527e-04
 -1.6770291e-04
  9.5870710e-05
  1.4961313e-03
  3.5674335e-04
  3.6978774e-04
 -9.7087340e-04
 -2.7242181e-04
 -1.3361637e-03
  3.2886452e-04
 -7.4126403e-04
 -3.6997109e-04
  1.7562759e-03
  2.1044107e-04
 -1.2069689e-03
  7.9333928e-04
 -2.7492532e-04
  6.9645245e-04
 -2.9300858e-04
  9.2417817e-04
 -5.9380539e-04
  1.3319617e-03
 -5.5872364e-04
 -1.1132074e-03
  1.9418688e-04
 -5.5009248e-05
 -3.1602368e-04
  3.1811700e-04
  7.8860670e-04
 -2.2866220e-04
 -4.8023849e-04
  4.6630148e-04
  4.8913574e-04
 -7.8313264e-05
 -3.2992044e-04
 -5.6912424e-04
  2.9535635e-05
  2.3160370e-04
 -1.5088911e-03
 -1.6942804e-03
 -3.4657656e-04
 -1.0110405e-03
  4.4326528e-04
  1.0259722e-04
  5.4987759e-04
 -3.3544033e-04
 -8.7307882e-04
 -8.2126353e-04
  7.6588063e-04
  1.6526012e-03
 -1.2132433e-04
 -2.8785033e-04
 -2.0831189e-04
 -1.1172044e-04
 -5.4246059e-04
  1.5442224e-03
  3.6966085e-04
 -1.6715755e-03
 -3.7717269e-04
 -8.0067903e-04
 -1.1605760e-03
 -5.2001188e-04
 -2.8310178e-04
  4.5655650e-04
  4.4553868e-05
  5.9773168e-04
  4.8490681e-04
  7.3657033e-04
  3.2964535e-04
 -3.1400734e-04
 -5.2500708e-04
 -2.1495523e-02
 -5.7699239e-05
  7.4506435e-04
 -1.6592834e-03
 -1.7460973e-04
  1.8347086e-03
 -1.9963569e-04
  5.6425855e-04
 -5.0579106e-06
 -7.4076501e-04
  5.5113173e-04
 -4.0004263e-04
  5.8771827e-04
  2.5071266e-05
 -5.3834556e-05
  2.5081457e-04
  1.0510361e-03
 -7.7916426e-05
 -1.1483070e-04
  2.6781528e-04
  1.9181282e-03
  1.8539595e-03
  4.9705687e-04
  2.1422628e-04
  4.6086291e-04
  1.5998972e-04
 -1.6214366e-03
  3.8069673e-04
 -1.1227613e-03
  2.3144828e-04
  1.9469454e-04
 -7.4750882e-05
 -1.0401249e-04
  4.9465679e-04
  3.7729941e-04
 -3.3355027e-04
  1.5885921e-04
  3.5300103e-04
  7.7189872e-04
 -1.0858279e-03
  5.6325160e-03
  4.2209917e-04
  2.7503547e-01
 -1.1946718e-01
 -5.3213294e-05
  2.7213399e-03
  4.1118043e-04
 -4.3988106e-01
  4.4668556e-04
  1.1172318e-04
  4.4285299e-04
  1.1387363e-03
  1.9012922e-02
  4.6705557e-03
  3.1816185e-04
  1.4197605e-03
  2.6261012e-04
 -2.2915912e+00
 -5.9670547e-04
 -1.0117679e-03
 -2.3302627e-04
 -2.8467903e-04
  4.7166188e-05
  7.7323325e-04
 -3.3873757e-03
 -8.1482856e-04
  1.2522707e-03
  4.2566692e-04
  1.1182689e-03
  2.3131772e-04
 -5.7274231e-04
  7.8634876e-05
  1.9290850e-03
 -6.3748949e-04
 -1.2502177e-03
 -1.8967432e-04
  3.1661315e-04
 -5.9336860e-04
  4.0129057e-04
 -1.3274581e-03
 -4.4797495e-04
  3.9824561e-04
  9.6714537e-04
  2.6294509e-05
 -1.3401030e-03
  4.6479882e-04
  1.3406402e-03
  8.7339249e-05
 -6.6910667e-04
 -9.9869686e-01
 -2.4740033e+00
 -7.8926659e-01
 -4.0167567e-01
  7.5298011e-01
 -5.3635734e-01
  9.7043000e-02
  9.4545595e-02
  9.5015228e-01
 -2.6963654e-03
 -5.7016546e-01
  3.4712079e-01
 -8.6363079e-04
  3.6953431e-02
 -7.5505161e-01
 -5.4738587e-01
  3.4547839e-01
  2.7042332e-01
 -6.2999089e-04
 -3.8129127e-01
  1.9232494e-01
  9.2142364e-03
  1.9185382e-01
 -4.3860862e-01
 -5.1782161e-02
 -4.8538812e-02
  2.4538264e-02
  7.1704825e-03
 -2.0048891e-01
  8.0450594e-01
  6.4718816e-04
 -3.4591651e-01
  4.3527210e-01
 -3.2182798e-01
  6.8963982e-02
 -9.4049299e-01
 -3.8022104e-01
 -2.0800872e-01
 -1.2691906e-01
  2.6616547e-04
 -1.7267707e-01
  2.4434045e-01
 -2.1935326e-04
  2.4016826e-01
  1.0416951e+00
  1.4039414e-05
  1.3186057e-03
  5.0005253e-04
 -1.3658956e-03
  2.1984784e-03
 -4.6172325e-04
 -1.0546724e-03
 -2.9077241e-04
 -1.1209542e-03
  2.8684246e-04
 -3.1066092e-04
 -6.3305470e-04
 -1.2186507e-04
 -4.8679784e-05
 -4.3763727e-04
 -2.6511904e-04
  8.2337210e-04
  1.2945860e-04
 -3.6577671e-04
 -1.3475851e-04
  7.8420606e-05
 -5.5877294e-04
  1.6007244e-04
  2.3252300e-04
 -1.1097290e-05
  5.9437688e-04
  5.6332309e-04
 -1.1893157e-03
  4.9708910e-05
  2.4679111e-04
  5.8705884e-04
  4.3020412e-04
  4.7018338e-04
 -2.8673743e-04
  2.1484820e-04
  4.3787659e-04
  1.7991032e-04
  6.1193993e-04
 -6.0478115e-04
  2.5641371e-04
 -1.4684106e-04
  1.3022396e-03
 -6.0365128e-04
 -9.0968161e-04
 -2.5706811e-04
  5.2868575e-04
 -1.5908535e-04
 -1.3789617e-03
  2.2227093e-04
 -1.8692974e-04
 -7.5280701e-04
  2.3054618e-03
  1.7391143e-03
  1.3022606e-03
 -1.3550423e-04
  6.2609412e-04
  4.0929689e-04
  3.6122222e-04
  1.3321207e-03
  2.1658918e-04
 -1.7164832e-05
 -2.1248915e-04
 -6.0113873e-02
  5.8879098e-04
 -6.6562736e-04
  5.6047359e-04
  2.2483678e-04
 -1.9221511e-03
 -8.9466386e-04
 -1.8967538e-03
  5.2388996e-04
 -2.3221977e-04
  1.7915543e-03
 -8.9826659e-05
 -5.6039315e-04
 -5.1744637e-04
 -5.9785356e-04
  1.8464468e-06
  6.0537932e-05
  7.6793617e-04
 -1.4644732e-04
 -1.2733984e-04
  7.4815913e-04
 -5.0261524e-04
  1.8168736e-04
  9.8926947e-04
  1.4907245e-04
  2.1662835e-03
 -4.9441907e-04
  6.0736679e-04
 -1.5847096e-05
  1.6370937e-05
  1.2222568e-03
 -3.8696584e-04
 -8.4461666e-05
 -8.2322804e-04
 -1.1843464e-03
 -2.7100462e-04
 -3.6755684e-04
  5.0249341e-04
 -6.4669119e-05
 -5.1103899e-04
 -3.8133559e-04
 -5.6725903e-04
 -6.3351629e-04
 -9.1394561e-04
 -2.4698296e-04
  4.9195660e-04
  5.3303761e-06
  9.1417495e-04
 -7.2116178e-05
 -8.2388823e-04
 -1.2778208e-04
  9.6363999e-04
  1.0503238e-03
  3.0864487e-04
  1.6926714e-04
  1.2286205e-04
 -7.0794503e-04
 -8.6214824e-04
 -3.1252432e-04
 -9.7458402e-04
  1.4248646e-03
  1.2878588e-03
 -8.4003919e-01
  9.4152155e-04
  5.2956992e-04
  4.8168076e-04
 -6.5560831e-04
 -1.2134561e-04
 -7.8073802e-04
 -2.4077280e-04
  1.1050557e-03
  2.0685196e-05
 -1.0697398e-04
 -9.6928776e-04
 -5.1291405e-05
  2.3067994e-04
 -3.7900551e-04
 -2.2095698e-04
  1.5342289e-04
  5.8031257e-04
 -3.1852155e-04
 -5.2371225e-04
 -6.3485047e-04
 -4.3596004e-04
 -5.2650034e-04
  1.0670703e-04
  6.0191721e-04
 -1.3381180e-04
  5.6925270e-04
 -6.1026798e-04
 -4.4673163e-04
 -1.5662217e-05
  2.9360761e-05
 -2.1951462e-04
  4.3389903e-04
 -5.4000545e-04
  5.0209055e-04
 -5.4331229e-04
  4.9885719e-05
 -2.0478514e-04
 -6.5847504e-04
 -9.9219580e-04
 -9.3833289e-05
 -8.6181372e-04
  1.3870900e-03
  1.8735512e-04
  4.5065277e-05
 -2.3570861e-04
  7.5360970e-04
  2.5383511e-01
  2.5645955e-02
  2.3714490e-02
  7.9359815e-02
  7.0194811e-02
  2.4245128e-03
  3.7579560e-03
  9.6442789e-02
  2.9835908e-02
  3.3951413e-03
  8.5520796e-02
  7.3465426e-03
 -1.0068150e-03
  1.5074944e-03
  3.1497527e-02
  4.3564364e-02
  8.0440864e-03
  8.3194710e-03
  6.7538358e-02
  5.6224938e-02
  6.0820285e-02
 -5.9686145e-03
 -4.3362775e-03
  1.0926680e-01
  8.9158066e-02
  6.0601514e-02
  1.2529260e-01
 -4.9095403e-02
  8.8298447e-02
 -2.7628082e-03
  6.6662766e-02
  4.0613260e-02
 -2.6716370e-04
  2.1392530e-01
  2.9757991e-04
  1.3792261e-01
  1.6892992e-04
  8.3427362e-02
 -4.3185558e-03
  2.1508662e-01
 -1.9394625e-04
 -1.2069074e-03
 -5.7882606e-04
  2.7001408e-01
  4.4415318e-04
 -6.5131620e-02
 -1.8167071e-02
  1.2134336e-04
  5.7008345e-02
 -6.1299693e-04
  1.3271580e-02
  6.4857644e-03
 -1.0073896e-03
  5.9707938e-03
 -2.0672486e-04
 -1.3511137e-03
 -3.4850469e-05
 -3.0500392e-04
 -8.3017471e-04
 -5.6795316e-04
  4.6881838e-04
 -5.2052374e-06
 -6.2895624e-04
  5.6092809e-05
  5.2843294e-05
 -2.3398234e-04
 -1.9826258e-03
  1.8613419e-04
  1.5475390e-03
  1.1794067e-03
 -3.6292261e-04
 -5.7811569e-04
  6.4375298e-04
 -2.9394343e-05
 -2.1470212e-04
 -1.1443563e-04
  4.5816260e-04
 -6.2642473e-04
 -2.4419813e-04
  1.1443091e-04
 -2.6442448e-03
 -8.2708831e-04
 -1.1592759e-03
 -5.1176372e-05
 -3.5060009e-03
 -7.5513613e-04
 -8.6542743e-05
 -2.1914970e-04
  4.3511967e-04
  2.0389748e-04
  2.0663561e-04
 -1.4800585e-03
  8.4775245e-05
  4.9693958e-04
  9.2206243e-04
 -4.3507284e-04
 -9.9172536e-04
  1.7884786e-03
 -2.0543623e-03
 -7.9676381e-04
 -1.6127239e-04
 -7.0167746e-04
 -5.5720110e-04
  1.7208213e-03
  1.4734989e-03
  1.5094454e-05
  8.5073867e-04
 -1.1104004e-03
  8.7385677e-04
  2.7115346e-05
 -8.1930036e-04
 -3.8210016e-02
 -2.4097632e-03
 -7.8024791e-04
  2.5240620e-04
  9.1020513e-01
 -1.0409907e+00
 -4.0974733e-04
 -8.8101579e-04
 -5.4461614e-04
  9.9586626e-04
  5.9871160e-04
 -3.5212621e-02
 -4.0757595e-04
 -2.2211173e-01
 -1.2718324e-01
 -4.6795416e-03
 -1.4085788e-04
 -5.7919105e-03
  1.7888043e-03
  5.5959658e-04
  3.9176672e-04
  5.4156804e-04
 -4.0227994e-03
  7.7675475e-05
 -1.0528922e-04
 -1.8492261e-03
  2.1067713e-04
 -7.1809330e-04
 -1.8831640e-03
  2.2332349e-03
 -4.4070943e-03
 -9.1379683e-04
 -1.4086218e-03
  3.3688988e-04
 -3.4498621e-04
 -8.4937148e-04
 -1.1516603e-03
  1.5668375e-04
 -5.2002678e-04
  3.6369934e-04
 -2.9811308e-01
  2.7673008e-04
 -4.2581337e-04
  1.3503568e-03
 -3.2844182e-04
 -1.5611132e-03
 -1.9619722e-04
 -1.3436835e-03
  1.3515592e-04
 -3.3281263e-04
  2.6971022e-05
 -6.3992776e-02
 -2.2588983e-02
  6.1521688e-03
  8.7881014e-03
  7.0226091e-01
 -3.4753468e-02
 -2.6976736e-04
  9.7130030e-02
  4.5378602e-01
  6.3369204e-03
  4.9256645e-03
  2.6537164e-03
  2.6453729e-04
 -4.0236828e-04
  5.4403570e-02
  1.2457047e-02
  1.6074533e-02
  1.5826248e-02
  1.7466443e-02
  1.0532212e-03
  1.4951240e-02
 -1.4110002e-03
 -6.5248241e-03
  6.3154958e-02
 -3.5806748e-04
  7.0061550e-02
  6.1145434e-03
 -4.1243727e-03
  2.4526818e-02
 -1.0124525e-02
  4.2458925e-02
  8.8339932e-03
 -4.1148090e-03
  1.0068797e-01
  1.0297417e-03
  1.7925523e-01
 -5.6667405e-04
  1.8685453e-02
 -4.3853926e-03
  1.5352732e-01
  1.0874127e-03
 -5.5991858e-04
  8.7824807e-04
  2.0370735e-01
  3.6445871e-04
 -5.2779324e-02
 -1.9808726e-03
 -1.5066370e-03
  1.0755401e-03
 -3.7113909e-04
  1.1981850e-02
  2.1626819e-03
  4.4219845e-04
  2.7397687e-03
 -2.9921994e-01
 -3.2269600e-04
  2.5951741e-03
  3.4678850e-01
  4.6243932e-02
  2.6016097e-04
 -8.2528371e-05
 -5.3447179e-02
  1.0706457e-01
  6.1094986e-05
  4.6639182e-02
  5.2422141e-03
  2.3407673e-03
  6.4909553e-05
  2.1926591e-01
  8.4473891e-03
  4.3146964e-03
 -3.5741329e-04
  6.1132472e-02
  2.7008920e-05
  1.7072961e-02
 -4.8589043e-04
 -1.8071196e-04
  4.3487046e-02
 -1.5133337e-04
  6.0339266e-04
  8.5948326e-04
 -1.9679428e-05
  5.3179998e-02
 -4.9550034e-04
  2.3466559e-02
  7.1061339e-04
 -1.0638817e-01
  2.3195888e-03
  1.5276557e-05
  5.1447406e-02
 -1.0396502e-03
  8.9287199e-03
 -9.5834321e-04
  6.8430952e-03
  5.0881252e-05
 -1.2468781e-03
 -6.2835705e-04
  1.5204637e-01
 -2.7108364e-04
 -2.6424539e-03
 -2.8488969e-03
 -2.5311003e-03
  7.8444422e-04
  4.0380444e-04
  1.7001423e-03
 -5.7932892e-04
 -8.4412727e-04
 -4.7131628e-04
 -1.0487185e-03
 -2.4928179e-04
  5.2917120e-04
  6.1866596e-02
 -1.7792243e-04
  1.0013805e-03
 -1.8335135e-05
  3.2646357e-04
  9.8567933e-04
 -1.7919494e-03
  1.7485892e-03
  3.9015367e-04
  2.5842033e-04
 -1.3071478e-03
  7.5094518e-04
 -9.3688240e-04
  4.2782450e-04
 -3.3632631e-04
  1.8014906e-03
 -5.9913122e-04
  1.2928480e-03
 -6.6417048e-04
 -4.2354359e-04
 -7.2107658e-05
 -3.2831397e-04
  4.9833854e-04
 -5.1548769e-04
 -4.2080320e-04
  2.7947588e-04
  1.8657958e-04
  4.2864875e-04
 -7.3557385e-05
  2.2518456e-03
 -6.8425364e-04
 -3.2229899e-04
  4.4497469e-06
  5.9709739e-04
 -1.4923343e-04
  5.7003141e-04
 -8.2024926e-06
 -2.2920857e-04
  1.8983012e-03
 -9.2236773e-04
 -1.9839089e-04
 -1.3278835e-04
  7.4388465e-04
  4.0612649e-04
 -2.5155381e-04
  1.5021376e-04
  5.7549402e-04
 -6.1982006e-05
 -1.5913657e-03
 -6.5946777e-04
  5.9630303e-04
  5.1887427e-04
  3.6196190e-05
 -5.8099208e-03
 -1.5312000e-03
  1.4900594e-03
  9.9724006e-05
  5.2156074e-06
 -4.4868537e-04
  1.1746048e-04
 -8.9675747e-04
  7.3331309e-04
 -5.0992979e-04
 -6.2941905e-04
  1.6056119e-04
  9.4589416e-04
 -8.2914677e-04
 -6.9046835e-04
  1.4876020e-03
  2.5771887e-04
 -3.7483740e-04
 -2.2604924e-03
  5.3332507e-04
 -1.3195761e-03
  8.3336525e-04
  8.4473437e-04
  4.1571070e-04
 -2.8702017e-04
 -1.9482063e-04
  3.1356895e-04
  1.5620553e-04
 -2.4784391e-04
  5.5583037e-04
  6.0055556e-04
 -3.4745762e-04
  1.4976236e-04
  4.5178007e-04
 -1.5156117e-03
 -6.7289325e-04
  7.6114869e-05
 -1.1364900e-03
  6.1880966e-04
 -2.6551404e-04
  1.7096740e-04
  1.2907527e-03
  1.9156556e-05
  5.2643410e-04
  1.5356828e-04
  1.5244794e-03
  4.3758046e-04
 -5.7705806e-04
 -3.8296301e-04
 -7.9567323e-04
  4.2966960e-04
 -8.1101258e-04
 -1.7501946e-03
  9.9711498e-05
  5.1811489e-04
  2.2063139e-04
  2.5602308e-04
 -3.7619790e-05
 -5.8729947e-04
 -1.2239779e-03
  7.0876075e-04
 -2.6859141e-05
  3.9937932e-04
  8.4549996e-05
 -1.2645844e-04
  6.9033052e-04
 -3.2922643e-04
 -1.3165998e-03
  2.9925017e-05
  4.0551537e-04
 -2.4328903e-04
  2.4770477e-05
  2.7888772e-04
 -1.2045578e-03
 -2.6609559e-04
  2.5572657e-04
  1.1453239e-04
 -1.9663409e-04
 -3.5001957e-04
  1.7058359e-04
 -3.4310320e-05
  2.4690991e-04
  8.0984953e-04
  1.3966775e-04
  3.1831686e-04
 -3.8591551e-04
  2.8290009e-04
 -3.5864664e-03
  3.4545487e-04
  1.3927467e-01
 -5.7477265e-04
  7.0682075e-04
  7.4151307e-05
  9.7906137e-05
  1.9322054e-03
  4.4547822e-04
  9.4720861e-05
  5.1618327e-04
 -5.8194058e-04
 -2.8757326e-04
  1.2198563e-04
  7.9593307e-04
  1.5259127e-03
  9.0551213e-04
 -1.4738245e-04
 -1.6497119e-04
  2.1537891e-04
 -1.2213014e-04
 -1.9845364e-03
  4.1145773e-05
  7.4770779e-04
 -1.8889148e-03
  3.7821062e-04
 -1.9077526e-04
  7.2383746e-06
  8.3890656e-04
  4.0032147e-04
 -2.1990179e-04
  9.3576073e-04
 -4.5409508e-04
 -2.6228902e-04
  1.5089064e-04
 -7.0416636e-04
 -1.7350871e-04
 -5.4358879e-05
  9.7494121e-05
  5.4122676e-05
  9.9679420e-04
  9.8266255e-04
 -4.7045227e-04
  6.9128413e-04
 -2.2560726e-04
 -1.0192966e-03
 -7.8942894e-04
 -3.3607304e-02
  1.1269759e-03
  1.1833458e-03
  6.8425678e-04
  1.1063484e-03
  9.9724764e-04
  2.1096674e-04
 -6.6956272e-04
  4.2038833e-04
  2.6375286e-02
 -1.3209399e-03
  6.7868782e-04
 -2.0742036e-05
  1.0008955e-03
  9.3667296e-04
 -3.8383916e-04
 -1.6518255e-03
  1.0593870e-03
 -1.0173382e-03
  9.6165080e-04
 -1.6530359e-04
 -2.3155786e-04
 -5.5713067e-04
  2.5870945e-04
  1.8388209e-03
 -1.2071712e-03
 -7.0288239e-05
  4.8579028e-04
  3.4701783e-04
  1.0190000e-03
 -9.1048547e-05
  4.3985280e-04
  6.7316840e-04
 -7.6949736e-04
  3.8433843e-04
 -8.3283993e-04
  1.1096587e-05
 -5.3379417e-04
 -1.9353726e-04
 -4.4882396e-04
 -7.8433566e-04
  1.3711560e-04
 -5.3055974e-04
 -3.4370742e-04
 -3.1950147e-04
  1.0373505e-04
 -1.5018163e-04
  6.5852184e-04
  2.0823233e-04
 -4.0177983e-05
  2.5623725e-04
  1.0517612e-03
  6.1336620e-04
 -1.0292426e-03
  6.0832780e-04
  1.2634380e-04
 -1.5109096e-03
  3.2510530e-04
  8.9908770e-04
 -1.0045168e-03
  9.8506676e-04
  2.9749650e-04
 -2.7605784e-04
 -3.9367942e-04
 -1.5005849e-03
 -8.4789906e-04
 -5.5301277e-04
 -4.5636129e-03
 -5.4749427e-04
  1.2364670e-03
  8.9623564e-04
 -9.6858200e-04
  9.0089845e-05
  8.9774403e-05
  8.6994325e-05
  5.1580352e-04
 -3.5103876e-04
  4.7137195e-04
  3.0498885e-04
  3.4521634e-04
 -1.6755600e-03
 -4.6775215e-03
 -1.8666647e-03
 -2.9785389e-03
 -7.2195323e-04
 -2.1653625e-04
 -1.4756854e-03
 -1.3304707e-03
 -4.7571596e-02
 -9.1750053e-04
 -6.2433362e-04
 -2.9232929e-04
  1.2468353e-03
  1.4897814e-03
  4.7170458e-04
 -4.9685180e-04
 -7.1481848e-04
  2.5582974e-04
  3.8744340e-05
 -8.9230842e-04
  2.8505086e-05
  3.6003918e-04
 -4.0673590e-04
  3.1897053e-04
  6.1829545e-04
 -3.4454378e-04
 -1.2946898e-03
 -7.3429127e-04
 -4.4371255e-04
 -1.1929210e-03
  1.8471951e-04
 -1.2773453e-04
 -4.5436977e-05
 -8.8633777e-04
  1.2341641e-03
  4.0960789e-05
 -1.3478228e-04
 -2.5332032e-03
  2.2575819e-04
  2.2607918e-04
  1.0833394e-03
 -3.9741478e-04
 -2.7935251e-04
 -6.1315845e-04
  4.4128967e-05
  1.0511001e-03
 -4.8431501e-04
 -3.3068805e-05
 -6.3039700e-04
  2.4792913e-04
  1.6032366e-04
  6.4813351e-04
 -1.0158528e-03
  2.0785827e-05
  9.3265587e-01
 -1.2777537e+00
  9.5179133e-02
 -1.1963832e-01
 -4.8005176e-01
 -5.3884387e-01
 -6.6850370e-01
 -5.0543964e-01
  3.0695608e-01
 -3.8958792e-02
 -3.3696967e-01
  6.6671637e-04
 -1.4439355e+00
  6.7344588e-01
 -1.2885007e-01
 -6.2528402e-02
 -1.2882054e+00
 -4.5533079e-01
 -1.4918035e-01
 -1.3096766e+00
 -2.7020159e-01
  3.6805803e-01
  8.2941806e-01
 -6.3318652e-01
 -9.3107885e-01
 -6.3968323e-02
 -1.1676805e-02
  4.7986788e-01
 -9.7664940e-01
  1.4762610e-01
 -2.7829471e-01
 -3.6349851e-01
  1.5453352e-01
 -4.6791255e-01
  2.2441612e-04
 -7.2359997e-01
  3.0494653e-04
  7.5073272e-04
  1.0016512e-01
 -9.0350412e-02
  3.6583323e-04
  6.4260596e-01
  2.0636711e-03
 -8.9589870e-01
 -4.8176579e-02
  8.0220811e-02
  7.4816071e-03
  7.3476089e-04
 -2.2252429e-02
  5.5131206e-04
 -1.0780721e-02
 -1.4213718e-03
  4.9803790e-04
 -1.1398087e-02
  3.6975110e-04
  2.7869891e-03
  4.1763613e-04
  6.8780832e-04
  1.9184446e-04
 -1.6230177e-04
  1.4416671e-04
  4.1976321e-04
  1.2783642e-03
 -5.1396381e-04
  6.0446304e-04
  1.0912102e-03
 -9.9023990e-04
  2.1012900e-04
  9.0140972e-04
 -1.4462434e-04
  3.8477566e-04
  7.5616903e-04
 -3.9339147e-04
  7.2693707e-05
  2.5290123e-04
  4.0348259e-05
 -1.4679988e-04
 -8.3865877e-04
  5.4900802e-04
  7.0835307e-04
 -3.8648586e-04
  9.6987898e-04
  1.7005845e-04
  1.5500130e-03
 -2.0664983e-04
  2.8727937e-04
 -3.7991119e-04
  7.1448280e-04
  4.9762771e-04
  5.8986701e-04
  4.5347471e-05
 -8.8248722e-04
 -1.9273507e-04
 -8.6144792e-05
  3.3288926e-04
 -2.1062936e-03
 -6.7175302e-04
  3.6221321e-04
 -6.7901296e-05
  3.8516361e-04
 -2.5973513e-04
 -5.9452828e-04
  1.5911450e-04
  9.5347888e-05
  5.5971771e-04
  1.2047059e-03
  8.7051361e-04
 -8.8855915e-05
 -8.4375893e-04
  2.1165438e-04
 -3.1113339e-04
  1.8040133e-04
 -6.1044242e-04
  1.8408305e-03
 -4.3023817e-04
 -2.6595637e-03
  9.6276315e-05
  6.7038643e-05
 -5.0290610e-04
  3.1235698e-04
  4.7088103e-04
  4.0657076e-05
 -4.5540193e-05
  4.6382917e-04
  3.8702850e-04
  2.0721214e-04
  6.2835909e-04
 -1.7601907e-02
  1.7914135e-03
  2.0773872e-04
 -7.1587786e-04
 -7.2431896e-05
 -1.2846740e-03
  3.9106462e-04
  4.5815713e-04
  3.7093190e-04
  3.4936189e-04
  7.0376373e-05
  1.8859276e-04
 -1.1479810e-03
 -7.7243987e-04
  6.9841437e-05
  4.6297358e-04
  4.1873634e-05
  1.0895411e-03
  3.2194119e-04
 -1.4187627e-03
  2.4847204e-05
 -3.4621390e-04
  4.8268685e-05
 -2.4596715e-04
  1.5802294e-04
  9.2500297e-04
  8.3740721e-05
  1.4202645e-04
  3.6179341e-04
 -2.7915064e-04
  5.2140746e-04
 -8.4451975e-05
  4.4423185e-04
 -2.8442155e-04
 -1.6272565e-03
  1.4081853e-04
 -6.4759311e-04
 -1.2943322e-04
  5.6464440e-04
 -2.3095818e-04
 -1.5019367e-03
 -1.7328770e-05
 -7.8013475e-04
  2.7037383e-04
 -6.0154195e-04
 -7.5622687e-05
  5.0924905e-04
 -6.5408327e-04
  1.1661459e-03
 -1.0737430e-03
  1.9340290e-05
 -9.1802620e-05
  9.9425507e-04
  1.3580773e-03
  4.8685109e-04
  6.2505489e-05
  1.4540309e-04
 -5.0765378e-03
 -3.8965777e-04
 -1.7289768e-04
 -2.1250444e-04
 -1.7504016e-03
  6.6006940e-04
 -1.6125892e-03
  4.6587000e-05
  8.5281645e-04
  3.2563985e-05
 -3.1219373e-04
 -3.0190687e-04
  2.8290458e-03
  6.3736498e-04
 -5.1274448e-05
 -6.9573440e-04
  2.3989535e-04
  3.5471443e-04
  5.5946417e-02
  2.7470401e-04
 -1.1782542e-04
  2.1007548e-04
  6.3142995e-04
 -6.5474864e-04
 -4.2146945e-04
 -7.7303132e-04
  5.2240764e-04
  9.2735791e-05
  6.3612609e-04
 -7.3842646e-04
  3.1255791e-04
  4.9496361e-04
 -3.7829862e-03
  8.6259958e-04
  7.4395211e-04
  2.8003229e-02
  8.0701179e-04
 -9.1327087e-04
  2.0836810e-04
  6.2812969e-02
  5.3932690e-03
  9.6949679e-04
  9.6881943e-04
  5.2280718e-04
 -8.0062560e-04
 -4.9204991e-04
  2.8890188e-04
 -2.9756143e-04
 -3.8445802e-04
  9.7025855e-04
 -5.0834595e-04
 -3.4314874e-04
  1.7303014e-03
  3.5706090e-04
 -1.9325298e-03
  3.2347444e-02
 -1.7463652e-03
  1.1985666e-03
  8.0754160e-04
 -2.0511835e-04
  2.3870068e-04
 -3.0368599e-04
  4.3571676e-04
  3.3821922e-05
  6.4770714e-04
  1.5090092e-04
 -7.8653579e-04
  1.1055342e-04
  6.2563393e-04
  1.9491971e-03
 -3.5521074e-04
  1.0734046e-04
 -2.9809325e-04
 -3.6587536e-03
  1.0399726e-03
  6.0946582e-04
  8.3603931e-04
  6.2163908e-04
 -4.9181114e-04
 -1.0075553e-03
  9.4999268e-04
 -1.1683266e-03
  2.0024553e-04
  8.6754962e-04
  4.4660358e-04
  1.2392657e-03
 -9.9096471e-04
  7.2710370e-03
  2.6674004e-04
  1.2604127e-03
 -3.0030651e-02
  4.4008167e-04
  7.1386551e-04
  8.9371108e-02
  2.9108366e-01
  1.5621125e-03
  1.6083316e-03
  2.6832038e-04
 -3.1553768e-04
 -4.7602295e-04
 -6.4593261e-01
  1.1584617e-03
 -6.7956699e-04
 -3.7506071e-03
 -1.0613040e-04
  2.1586732e-03
 -7.3652028e-04
 -1.5855159e-03
  7.9888757e-04
 -3.3175541e-04
  2.3222572e-04
  6.6145492e-04
 -1.6546949e-04
 -1.3272254e-03
  3.3111335e-04
  5.9921283e-04
 -1.2634408e-03
  1.2878157e-03
  6.5821427e-05
  3.9835845e-04
  1.6964735e-04
  1.2673615e-03
 -4.8861053e-04
 -2.3307280e-04
 -3.7468568e-04
  5.7004945e-04
 -9.8562997e-04
  1.8396210e-02
  1.3975305e-03
 -1.6108348e-05
 -4.9885374e-04
  3.8217433e-04
  5.0244358e-04
  4.8770313e-04
  1.4518534e-03
  2.3103247e-03
 -7.6964358e-04
 -7.2319224e-04
  6.8266946e-04
 -1.7981786e-02
  1.5866938e+00
  1.6341970e+00
  7.0595098e-01
 -7.8062326e-02
  1.2992178e+00
  4.1133094e-01
  1.2466629e+00
 -4.6550542e-01
 -9.6348488e-01
 -5.6145823e-01
  3.2937834e-01
 -7.4699824e-04
 -3.7702609e-02
  4.3749478e-01
  7.8830040e-01
  3.2241982e-01
 -5.1567443e-02
 -1.7738043e-01
  6.6183992e-02
 -2.4402967e-01
  1.6948321e-01
  2.1763204e-01
 -8.4226932e-03
 -2.0575881e-02
  3.3432633e-01
 -2.4285637e-01
 -9.2613019e-02
  4.2874488e-01
 -4.0572677e-02
  1.5033339e-01
 -2.5222248e-03
  5.5514500e-02
 -3.4732211e-01
  2.8150965e-04
 -1.7001785e-03
 -1.5640748e-01
  1.7007383e-02
  2.9013410e-02
 -1.1973948e-02
 -9.3528813e-01
  8.0570227e-01
  5.2294936e-02
  2.9201338e-01
 -1.0238606e-01
  2.7344489e-01
  1.9320529e-03
  3.5510848e-03
 -3.3544973e-04
 -2.5432087e-03
  5.5218235e-02
 -8.1110271e-03
 -2.3369831e-03
 -8.1241672e-04
 -6.1409519e-04
  1.5404989e-02
  1.1818699e-04
 -1.5179057e-03
 -1.1058149e-03
 -5.6765950e-04
 -3.1482594e-04
 -2.6333693e-03
 -4.5242587e-01
 -8.3280634e-04
 -1.3118808e-03
 -2.1208827e-03
  7.9166680e-04
 -6.5130458e-05
  2.4088002e-04
 -8.2983624e-04
 -7.8721772e-05
 -1.6474818e-03
 -6.5618136e-04
 -6.8916741e-04
 -1.1174266e-03
  3.3278772e-04
 -1.9489923e-03
 -1.0408143e-04
 -9.0257998e-04
  7.6541014e-04
 -1.8625518e-03
 -3.2115178e-03
 -8.9282243e-05
 -1.1910952e-03
  3.7840945e-03
 -1.3135471e-03
  2.1104637e-04
 -8.4584235e-04
 -5.5013796e-05
 -3.1996192e-04
 -1.2888912e-03
 -1.0050727e-03
  3.0515203e-04
 -4.3266252e-04
  1.0166449e-03
  4.1001948e-04
 -7.6250284e-04
 -3.8435633e-04
 -2.9193584e-03
  8.9510162e-05
  2.1969299e-03
 -9.7275694e-04
 -3.0584561e-04
  3.5146563e-03
  2.4808722e-03
 -1.3845750e-03
 -8.3237122e-05
  2.5410648e-03
 -1.5186618e-05
  1.5741937e-03
  1.1944779e-01
 -1.0627151e-01
 -9.0650599e-03
  3.8605604e-01
 -1.6796810e-05
 -2.0148761e-04
 -4.1022950e-01
 -1.0419805e-01
 -7.7554852e-02
  1.4318576e-01
  1.5355115e-01
 -1.7885504e-02
  1.4896953e-04
 -1.4943144e-02
  5.8648661e-02
  4.5875937e-02
 -2.9333977e-03
 -5.4663522e-03
 -1.3663227e-02
  9.4870009e-02
  8.5386094e-03
  6.7960523e-02
 -3.0220836e-01
  2.8512377e-04
 -3.9399356e-02
 -2.5486387e-03
  4.6408575e-02
  7.0445240e-06
  1.1102606e-01
 -3.5021844e-04
 -1.8825590e-03
 -4.1681290e-02
 -1.3457247e-02
  1.1817088e-03
 -9.8334858e-03
  1.1856709e-02
 -1.5877604e-03
 -7.7752717e-04
 -1.0947306e-01
  5.8880920e-05
 -3.1423531e-02
 -2.3892675e-04
 -1.1651458e-01
 -2.5198481e-04
  8.6362526e-04
 -5.0666311e-04
  1.2880260e-03
 -9.0777327e-04
  2.4290797e-03
 -6.2050782e-03
 -4.9256445e-03
 -7.7925768e-04
 -4.5163813e-03
 -5.8708154e-04
  1.2449938e-04
  2.9764767e-04
  2.2957991e-04
  1.7353403e-03
 -1.5911410e-02
  5.8538648e-05
  1.7342603e-04
  3.1813057e-04
 -1.2106814e-04
 -2.4341663e-05
 -1.2617186e-03
 -5.4094344e-05
  2.1062187e-04
 -2.3958439e-03
 -4.9252948e-04
 -1.3446329e-03
  1.2397430e-04
  1.8328593e-04
  8.3976949e-04
 -8.0003229e-05
 -1.1780979e-03
  3.9173014e-04
 -2.5961206e-03
 -3.0571118e-05
 -1.9297794e-04
 -5.9159294e-05
  2.9055611e-04
 -6.3023460e-04
 -1.6458286e-04
  1.3020696e-03
  2.1170974e-03
  7.1549635e-05
 -7.5500121e-04
 -1.4972249e-04
  2.7936319e-04
  4.6215349e-04
  3.7947003e-04
 -1.4224020e-04
 -4.7519503e-04
  1.3457840e-04
  9.0492627e-04
  2.9486639e-04
 -3.2295054e-04
  3.7707145e-05
 -3.2166010e-04
 -1.1637843e-03
  9.4771283e-05
  4.0406470e-05
  4.8089481e-04
 -9.9063164e-04
  6.8082538e-04
  9.3713822e-04
 -4.3834403e-05
 -1.0055576e-04
 -2.5743982e-04
 -5.8213365e-04
 -6.0229107e-05
  5.4975838e-04
  5.2959664e-04
 -1.7467039e-04
  8.4090210e-04
 -1.8374657e-04
 -4.6337591e-04
 -4.6168471e-04
 -1.8263655e-03
 -5.7238754e-04
 -2.5341446e-05
 -9.4196745e-05
 -6.8395730e-04
 -3.8106189e-04
 -4.2300081e-04
  7.4391667e-04
 -3.2234634e-04
  3.8887188e-04
  8.3191594e-04
 -1.0935325e-04
  1.1773093e-04
 -3.0098736e-04
 -1.9236506e-04
 -3.8298727e-05
  2.0419696e-04
  1.7949381e-04
 -3.9978672e-04
 -1.3644212e-04
  7.5954362e-05
  3.1356077e-04
  1.8837380e-03
  9.3717844e-04
 -6.1476044e-04
  2.6724921e-03
  6.1464129e-04
 -3.7719635e-04
  2.5896167e-03
 -2.5626595e-04
 -8.4115623e-04
  1.4232610e-04
 -1.0708631e-03
 -1.6764385e-05
  9.9358127e-05
  3.4706478e-04
 -1.9673855e-04
  3.5543961e-04
  3.2981083e-04
 -1.3085522e-04
  1.6579938e-03
  2.8765673e-04
  1.0612663e-04
  3.2684806e-01
 -5.1991397e-04
  7.0572476e-04
 -3.4175802e-04
 -7.4752194e-01
  7.5412559e-04
  3.4360710e-04
 -2.2989283e-04
 -5.4119673e-02
  1.1129288e-03
  1.6512591e-03
 -7.4431975e-03
 -1.5226090e-03
 -9.1339891e-05
  1.6288510e-04
  4.5062162e-04
  6.0639007e-04
  2.3124629e-04
 -6.4162939e-04
  9.5152676e-01
  8.7930862e-04
  1.4850147e-04
  2.5507316e-04
 -7.8619312e-04
  3.1622424e-04
  1.8335932e+00
 -3.2095541e-04
  2.5492182e-01
 -7.4477273e-04
 -5.6653976e-04
  2.3329756e-01
 -3.1249557e-04
  4.4945523e-04
  5.2632503e-02
 -4.1520610e-01
 -4.3207116e-04
  4.4695754e-03
  1.5813241e-02
  2.6387590e-01
 -2.4742095e-04
 -1.0946745e-01
  2.5882846e-01
  1.3594292e-01
  4.0487096e-02
 -1.3324789e-02
  6.4662023e-04
 -1.1694571e-02
  2.5655881e-03
 -7.0988446e-02
 -2.2370633e-01
 -5.1605304e-05
 -2.0490477e-05
 -4.6627130e-03
  8.6472347e-02
  6.7615807e-02
 -6.9556212e-01
 -1.5533875e-01
 -5.4214972e-01
 -1.4340896e-03
 -5.8356416e-04
 -1.0107276e+00
  1.1942963e-01
  3.6840938e-02
  5.9733522e-01
 -2.8187003e+00
  3.1011042e-03
 -2.7085454e-04
  1.7920178e-01
 -4.3287447e-01
 -4.0876437e-03
  1.1168858e+00
  1.7020620e-01
 -8.9706844e-01
  4.2620566e-01
 -2.9586393e-01
 -2.2365952e-01
 -6.5011734e-01
  1.1452077e-01
 -2.9799320e-02
  1.0695047e+00
 -6.2804812e-01
  7.1081847e-01
  1.0081857e-01
 -5.9447700e-01
  1.0161592e+00
  3.4242228e-01
 -1.0763367e-01
  6.8060964e-01
 -7.5088066e-01
  1.0916243e+00
  4.5250982e-01
  2.0302908e+00
 -1.1396297e+00
 -9.9017280e-01
 -1.0376986e-01
 -7.2527349e-01
  1.7662975e-01
  3.8667675e-04
  1.1929640e-03
  1.7035772e+00
 -1.6839334e+00
 -6.3775125e-04
 -8.5498922e-04
  1.1302640e+00
 -8.0622296e-04
  1.2794161e-03
  5.1788328e-04
  1.3925712e-01
 -3.0653999e+00
 -1.2272611e-03
 -3.3341779e-04
  5.4685777e-01
 -1.1395503e+00
  2.5554592e-04
  3.1590367e-05
  2.7975246e-01
 -6.8508416e-01
  1.2072029e-04
 -1.7597312e-04
  9.4586903e-01
 -5.7737815e-01
 -5.3986325e-05
 -1.2392558e-03
  9.6946275e-01
 -1.1772553e+00
  3.9198715e-04
 -2.0990905e-04
  7.6304060e-01
  1.9575161e-01
  1.9319665e-04
 -2.1668070e-04
  1.1058462e+00
 -1.4178276e+00
  5.8570489e-02
  2.3199009e-02
  1.9196912e+00
 -1.8328173e+00
  2.5194293e-04
  3.4787986e-04
  1.5376152e-01
  3.9015105e-04
  3.8199589e-04
  1.0732826e-03
 -5.0818926e-04
  1.1359573e-03
  1.5354668e-01
  4.3417593e-03
  4.0844792e-01
 -3.1357291e-01
  1.5797673e-03
  2.0329820e-03
  7.1081960e-01
 -8.5285155e-04
  3.1049747e-04
  8.1859049e-05
  6.9095218e-04
 -2.9229062e-02
  3.7589744e-01
  4.0993360e-03
  5.7153815e-01
  3.6673775e-01
 -3.1463576e-05
  1.2829312e-02
 -2.2928832e-01
 -1.7456031e-01
 -5.9794706e-01
  6.5139532e-02
  1.7864676e-01
  3.7072998e-02
 -4.2275518e-02
 -1.3501698e-01
  2.6737925e-01
 -1.4070050e+00
 -1.1712947e-03
  7.6058041e-04
 -9.6986390e-04
 -1.0055130e-03
  9.6773542e-04
 -5.2852049e-03
  6.1656488e-03
  2.9126519e-02
 -3.4719610e-01
  2.4393619e-04
  3.2264104e-01
 -1.9925348e-01
  2.5957313e-04
 -5.7640716e-02
  4.8091784e-01
  6.2664237e-04
  1.6843717e-03
 -4.7562725e-04
  4.5289707e-04
  2.5122086e-04
 -1.9150199e-01
 -5.9208454e-04
  1.1281674e+00
 -1.4113841e+00
 -1.0682609e-03
 -4.6508968e-02
 -1.3281636e+00
  1.2971765e-03
 -1.9771604e-01
 -1.7118701e-01
  1.1811351e+00
  1.2393857e-03
  8.4494781e-03
  4.3877456e-04
  2.2182505e+00
  2.2224596e+00
  1.1002494e-02
 -1.1430374e-01
 -2.0571852e-03
 -8.9529313e-02
  2.9696379e-05
  3.1523380e-04
  4.3516159e-01
  2.2996860e+00
 -3.1900913e-01
 -9.2975527e-02
 -1.2942594e+00
  7.0770079e-01
 -4.9227016e-04
  1.5127788e-01
  1.3193543e+00
 -1.6123281e-03
 -4.4945267e-01
  2.6915125e-03
 -2.4699469e-01
  4.0517390e-01
 -3.5051525e-01
 -2.7045453e-01
 -1.8415080e+00
 -1.8458383e-01
 -1.0054039e-03
  1.5623988e-01
 -1.5750089e+00
 -3.3730552e-02
  2.9668424e-01
  2.5767094e-01
 -9.3133265e-01
 -1.0161953e-01
 -3.9993459e-03
  5.8612490e-01
  8.7910628e-01
 -2.3290472e-01
  8.2175428e-04
 -7.0084212e-03
 -6.9524889e-04
  1.7047633e-03
  9.1108779e-04
  8.3308981e-04
 -2.4001789e-03
 -3.4771055e-01
 -1.1913569e-03
 -3.0150326e-05
  5.4009818e-02
 -4.9030310e-01
 -2.4605985e-04
 -2.4126845e-03
  3.5961348e-01
 -4.3923741e-05
 -5.6918724e-03
 -2.0653585e-03
  2.6147040e-05
 -1.6434032e-01
 -5.5424154e-01
  9.5610274e-04
 -1.3337657e-03
 -1.0788450e+00
  5.5866042e-04
 -1.2671725e+00
  6.3888930e-02
 -1.1318341e-04
 -1.7517836e+00
 -1.2482944e+00
  9.3696835e-03
 -4.9703339e-01
  9.5486395e-02
 -1.2494021e-03
 -2.8559864e-02
 -1.7492323e-01
 -7.1512716e-04
  8.3696999e-04
  1.8233556e-04
  4.0611433e-04
 -3.5284797e-04
  1.3067745e-04
 -2.0839814e-02
 -9.2509502e-01
  1.1493167e-01
  2.7668701e-02
 -2.1461271e-01
 -1.6079906e-02
  2.9426964e-04
  2.8642444e-05
  2.4242647e-01
 -2.8814332e-04
  1.0598125e-01
 -1.8041647e-03
 -4.6152794e-03
 -1.1024289e+00
  2.7306046e-04
  1.7742665e-01
  1.0179181e+00
 -9.1656208e-02
  1.4080827e-03
 -1.6527573e-04
 -1.2254027e-01
 -2.9643998e-01
  1.7388231e-01
  1.4588179e-04
  2.3435692e-01
 -2.5412151e-01
 -7.7263862e-02
 -2.2262521e-01
 -1.4046475e+00
 -7.4626797e-01
 -2.1115299e-04
  1.7142128e-04
 -2.8620289e-05
 -9.7632990e-05
 -1.5792887e-03
 -1.1359622e-03
  4.9996353e-04
 -2.5208679e-04
 -1.0921811e+00
  1.3987010e-04
 -9.3984228e-01
 -2.3621517e-01
 -6.1902092e-03
 -1.7423441e-03
 -2.1499610e-03
 -3.9084247e-04
 -5.7976700e-07
  3.4341580e-04
 -6.7708321e-04
 -1.5315800e+00
 -1.7211094e-01
 -1.0060675e-02
  2.0051761e-02
 -5.4236460e-01
  8.7382374e-05
 -4.8580347e-03
 -4.7295803e-01
 -1.2062258e-01
 -1.2410288e-03
 -2.4079240e-03
 -1.6522653e-01
 -1.1729602e+00
 -1.0709873e+00
 -2.8986415e-01
 -1.0335084e+00
  1.0355823e+00
 -2.8670095e-03
  8.5783796e-04
 -5.7533648e-02
  9.5377915e-04
 -8.8655353e-02
 -7.1088724e-02
  9.1926351e-02
  9.6555549e-04
 -1.0483916e+00
  2.9702777e-01
 -2.2304022e+00
  8.0034800e-02
 -9.1142603e-04
 -3.9277416e-01
  8.6282738e-02
  1.1777906e-01
 -2.3470663e-01
 -1.6916263e+00
 -2.1782910e-02
 -1.7603536e+00
 -2.9668896e-02
 -3.2048330e-01
  7.7454776e-01
 -6.6563606e-01
 -1.9150184e-04
 -5.6825843e-02
 -1.2944702e+00
  2.6904118e-01
 -6.9832698e-02
 -1.0779949e-03
 -4.0253335e-01
 -1.9662393e+00
 -9.7807610e-01
  1.7414763e-04
 -1.1473110e-02
  1.1508791e+00
 -2.1456444e-01
 -2.0592725e-01
 -1.2999335e-01
  1.0300124e-01
 -3.3080599e-01
  1.6956836e-02
  8.0446792e-01
 -2.7013052e-02
 -2.3415001e-01
  3.8039030e-03
  5.0578855e-02
  7.3728561e-01
 -1.4930455e-01
  1.3575867e+00
  5.0486982e-01
  1.7454311e-04
 -2.8588054e-01
 -6.8289655e-01
  1.1953808e+00
 -1.0412276e+00
  3.7600902e-01
  5.4195416e-01
  5.1971984e-01
 -1.3489231e+00
  2.3134885e+00
 -1.7544717e+00
  6.5614182e-01
 -2.9614741e-01
  1.8195115e+00
  4.9890268e-01
  2.4557728e-01
  3.3941701e-01
 -2.2181377e-01
  1.8461363e-01
  1.0492204e+00
 -1.7550758e+00
 -1.4328982e-05
  8.7572113e-02
  6.9383103e-01
 -2.5240043e-01
 -3.7855944e-01
  7.2267307e-05
  1.5618683e-01
  8.2276994e-01
 -1.3942525e-03
 -6.9867082e-02
  3.7629163e-01
  1.7528746e+00
 -2.1509100e-01
  4.2826015e-01
  8.8001683e-02
 -2.5293192e-01
  1.0581913e-04
  1.0336742e-03
  2.6098302e-01
  3.1650653e-01
  7.3086447e-01
  1.1878572e+00
 -4.6778372e-01
 -6.8135732e-01
 -1.9246258e-01
  2.1018630e-02
 -5.3610885e-01
 -5.5775911e-01
  1.5302452e-01
 -1.0790484e-03
 -1.7669986e-01
 -1.4591777e+00
  9.2464423e-01
 -1.3917161e+00
 -1.8948920e+00
 -1.0299828e-01
 -6.3004094e-04
 -1.8624223e+00
  6.7424230e-02
 -4.7467422e-04
  9.3753006e-06
  7.4365780e-02
 -1.5979799e-02
 -6.6013639e-03
  4.1201487e-01
  4.4255823e-01
  1.4504558e+00
 -1.9364528e-01
  9.6203402e-02
  1.1010360e-01
  1.0015551e+00
 -6.0102199e-03
 -3.8632774e-01
  2.4781513e-01
 -1.4231943e-01
 -9.4506261e-04
 -6.9515437e-01
 -2.1713808e+00
 -1.1708164e-01
  3.4788582e-01
  4.8624897e-01
 -3.2188401e-01
  3.8563114e-01
 -2.3359081e-02
  6.7930961e-01
 -1.9523412e-01
 -6.1809951e-01
 -2.0878518e-04
 -5.8695716e-01
  8.1055635e-01
 -1.1836640e+00
  1.0255644e+00
  3.4855008e-01
  6.1231709e-01
  1.5067453e+00
  3.0113301e-01
 -2.5519412e+00
  1.2606430e+00
 -1.3083484e+00
 -3.2972357e-01
 -1.9775748e-01
 -1.4342400e-01
 -2.2460566e-01
  7.5265330e-01
 -3.1487837e+00
 -1.4025507e+00
  8.2307741e-02
  9.0816754e-01
  1.3319589e-01
 -6.2093294e-01
 -1.9121660e-02
 -3.4777839e-02
  2.7161512e-01
 -4.6006536e-01
  2.5783867e-01
 -7.9498833e-01
  3.7748125e-01
  4.4398054e-01
  2.7268469e-01
  6.4741604e-02
 -4.6193531e-01
  2.4106272e-01
  2.3594496e-01
  8.4428149e-01
 -9.2722319e-02
 -1.4165953e-01
 -5.9835531e-02
 -2.5315000e-02
 -1.1649441e-03
 -2.8984642e-01
  5.2029747e-01
  4.4670407e-02
 -1.4011008e-01
  1.2847254e-01
  3.3811631e-03
 -4.9792510e-04
 -3.3215142e-03
 -6.8861002e-01
 -1.0615830e-01
 -5.3553581e-01
 -2.0104636e-04
 -2.2998948e+00
 -3.4460402e-01
  9.3926325e-02
 -7.0159858e-01
 -4.9798581e-01
 -5.3117597e-01
 -3.3667587e-02
  1.1094453e-02
  1.3987114e+00
  1.6786802e-01
  5.1354235e-01
 -2.3164834e-01
  1.7227998e+00
 -6.2491310e-01
  4.3360952e-01
 -1.0318974e-01
  1.9848582e-01
 -3.8508546e-01
  1.7535232e-01
 -2.4516935e-02
 -9.2787278e-01
 -4.7503584e-03
 -1.5005127e+00
  1.1968722e-02
 -1.9929852e-01
  4.4051683e-01
 -2.6777875e-01
 -1.6081662e+00
  6.0601485e-01
 -8.2807046e-01
  7.3537254e-01
 -1.3648651e+00
 -1.0217050e+00
  7.7441357e-02
  1.5551940e+00
 -5.6146431e-01
 -1.1302879e-01
  7.0214100e-02
  9.8410428e-02
 -4.9227454e-02
  2.7842683e-01
  5.5702382e-01
  4.5099756e-01
  8.2754111e-01
 -2.8884470e-01
 -1.1435829e+00
  8.7964702e-01
 -5.6813246e-01
  5.2688915e-01
 -5.7517552e-01
  3.6919594e-02
  3.7881434e-01
  4.4728985e-01
 -4.0180561e-01
 -5.2714682e-01
  5.7155266e-02
 -1.4035846e+00
 -1.2398531e-01
 -1.0848584e-02
 -1.8752962e-03
  1.1017910e-03
 -4.9735451e-01
 -2.8308602e-03
  6.7419904e-01
  1.2326316e-03
 -9.7304903e-02
 -1.8334631e-03
  1.4403515e-03
 -6.9420115e-04
  2.8166490e-02
 -5.0902545e-01
 -7.9294682e-01
  8.6233735e-01
 -7.5347465e-01
 -6.3207431e-04
  5.6199777e-01
 -6.8143800e-02
 -1.5681916e-01
 -9.1027254e-03
  8.3652675e-01
 -2.2505740e-02
  4.1262507e-01
 -3.1710911e-04
  1.1829356e+00
  6.8142158e-01
  3.8481143e-01
 -5.6182265e-01
  6.3047683e-01
 -3.8483119e-01
 -4.4202945e-01
 -7.4470568e-01
 -5.5012214e-01
 -1.0290109e+00
 -1.1123589e+00
 -8.2149017e-01
  7.4668503e-03
 -1.8544478e+00
 -2.0235676e-01
 -7.7855319e-02
 -1.2704012e-01
  7.8295207e-01
  2.2751013e-02
  4.3966586e-04
  6.4674056e-01
  1.7438239e+00
  2.2392061e+00
 -1.0523998e-01
 -1.1574487e-03
 -8.4183753e-01
  7.7472532e-01
 -4.6646737e-02
 -1.8667901e-01
 -5.1447171e-01
  1.5341451e-02
 -2.2322958e+00
  1.0036502e+00
  6.1904076e-02
 -2.4490270e-03
 -3.9505205e-01
  5.3911793e-01
  1.1844922e-01
 -1.0074034e+00
  2.4557151e-01
  5.1601866e-04
 -4.8629376e-01
 -8.1690833e-02
  1.8524046e+00
  2.4121499e-01
 -4.4796938e-01
  1.8728497e+00
  9.0376300e-01
 -6.9983280e-01
  5.0833195e-02
 -5.2769470e-01
 -1.2190285e-01
  1.0016747e+00
 -1.2495437e-03
 -6.2457073e-01
 -1.0987765e-01
 -1.8439978e-01
 -2.4133036e-01
  1.2502946e+00
  1.0112274e-01
 -4.7351230e-02
 -1.8031898e-01
 -1.5851980e+00
  4.0869069e-01
 -1.2687161e+00
 -5.8287978e-01
 -8.6411446e-01
 -1.2581477e+00
 -2.0143769e+00
  2.2410200e+00
 -7.4497747e-01
 -1.1750404e+00
 -4.8391256e-01
  2.6050985e-01
 -4.7196132e-01
  4.3407956e-01
  7.0982730e-01
  9.7232330e-01
 -2.9499814e-01
  7.7685493e-01
  7.1463682e-02
  7.1463682e-02
  7.1463682e-02
  7.1463682e-02
  7.1463682e-02
  7.1463682e-02
  7.1463682e-02
  7.1463682e-02
  7.1463682e-02
  1.1981269e+00
  1.1981269e+00
  1.1981269e+00
  1.1981269e+00
  1.1981269e+00
  1.1981269e+00
  1.1981269e+00
  1.1981269e+00
  1.1981269e+00
  9.4198191e-01
  9.4198191e-01
  9.4198191e-01
  9.4198191e-01
  9.4198191e-01
  9.4198191e-01
  9.4198191e-01
  9.4198191e-01
  9.4198191e-01
  3.1253439e-01
  3.1253439e-01
  3.1253439e-01
  3.1253439e-01
  3.1253439e-01
  3.1253439e-01
  3.1253439e-01
  3.1253439e-01
  3.1253439e-01
  4.0543415e-02
  4.0543415e-02
  4.0543415e-02
  4.0543415e-02
  4.0543415e-02
  4.0543415e-02
  4.0543415e-02
  4.0543415e-02
  4.0543415e-02
  2.3866823e+00
  2.3866823e+00
  2.3866823e+00
  2.3866823e+00
  2.3866823e+00
  2.3866823e+00
  2.3866823e+00
  2.3866823e+00
  2.3866823e+00
